{{0.9259783254649561, -0.4287216928467173, 0.5731501134632062, -0.6896752429390162, -0.8292966807448853, 0.3352136768630621, -0.3908096896470377, -0.026371717604904903, -0.15988412128298263, -0.35069213987449127, 0.4841399705882327, -0.5224689890681901, 1.0161034947777963, 0.45339071934249403, -0.585691461130428, -0.2835370906256796, 0.48831667459377837, -0.6697064347679086, -0.8474323307096718, 0.8461717453558737, -0.040630444758126986, -0.1785505351476712, 0.6449783067184078, 0.9658005735110876, 0.71146225179582, 0.36070537142883796, 0.6609988094448133, 1.067956174647809, -0.045535315708831445, -0.16231721233154092, -0.4039227892687127, 0.7555157549318354, 0.9053317188482302, 0.7570496085942424, 0.23793152509585053, -0.5299946474333855, 0.1305390397465385, 0.9428664380966971, 0.8302572198900625, -0.068380093101733, -0.01382786143334916, 0.009358540651539198, -0.3408719314265988, -0.5767727450185002, -0.4509778463955925, -0.598627834424057, 0.8122901717234724, -0.5911740330998368, -0.06051770508856191, -0.8318127354159239, 0.6634968403836781, -0.39991604741847275, -0.1817102495406381, -0.15314090832291644, 0.8477859061716483, -0.4833854447826684, -0.9031665397772448, -0.02976575181867877, -0.2797610217969145, 0.37715936240787196, -0.4210221353024234, -0.7105221993526003, -0.4553469145955589, 0.7020647440033151, -0.8001711995286946, -0.6304922114988656, -0.4904250458496295, 0.15172048001807736, 0.422661701973472, 0.2886758845906426, 0.723186885408042, 0.87081636547798, 0.6929094808955352, -0.6413190203972775, 0.19249248406394173, 0.7645239824047108, -0.38572845015878254, -0.32852800792058034, -0.6758175844445221, 0.21221832011363567, -0.6974884251558479, -0.36366319504234035, 0.30521043783730073, 0.6065363914653942, 0.520286287255583, 0.315946363969532, -0.183959783243841, -0.17371063845765217, 0.45892334894582937, -0.05866885771247045, 0.41838332573064063, 0.2910676746012427, -0.34682091705344914, 0.4122099011445882, 0.7178697868801189, -0.880859465934535, -0.6674904860046906, -0.8032729288229755, -0.4849521602632095, -0.749185060201859, -0.35320276064154604, -0.7010769503606862, -0.4915592892148269, 0.47270560413813545, 0.03428749451129349, 0.39392788988789523, -0.626602357404818, -0.39026943652890395, -0.02510295005425336, -0.7889376011548807, -0.34278330047969546, 0.7795046570053182, -0.227924979161493, 0.41994293779339087, 0.5044603058208343, -0.3764962141622338, 0.6496320685283286, 1.086388887914102, -0.7624556399646372, 0.40953016284014176, 0.011694786923461433, 0.08920299029928942, 1.0093548252753695, 0.16441633542234438, 0.9310312635546233, 0.6445545867548077, 0.8222726444933216, 0.34235818547072405, 0.8727838613123902, -0.16361438609454085, -0.11036820579846893, 0.9025541907296142, 0.7682505417278809, -0.3636405479656393, -0.7924742940690394, 0.6032781073146005, -0.5202494076485887, 1.026071053323658, 0.7699933979479378, -0.7609692894589075, -0.2071634047697294, 0.1994334094571482, -0.6939529291332769, 1.0361360596504405, 0.050380080761171946, 0.9096019068080338, -0.812308731421337, -0.5719400093403322, 0.8332269189757489, -0.5992513900400103, -0.2681889627146004, 0.6945960301986527, 1.003751852858096, 0.3473373047769383, 0.04964102491445252, -0.48126032378697275, -0.08142569827290647, -0.4699282723930296, -0.4244362624185032, -0.5635197029061793, 0.9978937539361793, -0.3932961419175301, -0.6781951248174588, -0.5507132853869037, 0.6270801141129385, -0.4532737929716401, -0.6562309654706632, 0.8996167780266777, -0.6880643146167124, -0.10268384218739408, -0.27634367625985645, 0.28611198793181924, 0.9240504266955979, -0.5818767125787446, -0.11630419301146776, 0.12001482818955096, -0.5616607597952785, -0.6923242248985234, 0.40933396918928777, 0.9239577341591637, -0.5948298166839349, 0.5718187889411694, 0.9194555840691194, 0.7362457758523571, 1.007690021540076, 0.22258419877988997, -0.8919911686462509, -0.509352739018454, 0.1665973791416711, -0.7422460106270001, -0.6966883781102798, -0.7952985098110606, -0.02529291906461667, 0.3915289890696516, -0.3838976728932126, 0.9500094610299323, 0.04864421388843835, 0.0054529327656914, 0.6371302609478228, 0.3739877920116449, -0.41562493821375773, 1.0124400002236422, 0.6146285025159268, 0.7685018424075715, 0.6957294679018838, 0.08426768027479523, -0.4050874690957908, 0.5564778689269001, 0.8123734647663088, -0.29025008076544884, 1.0848241066023354, 0.2800173001064384, -0.17485572557502116, -0.26743069881036824, -0.2379652632231307, -0.3279208731895568, -0.07638901458243953, 0.3800772778328392, -0.41221345744314314, -0.44538600953424845, 0.2395609706590207, -0.6901911451017928, 0.9499689983977497, -0.4791826767947052, 0.6601048563988727},
{0.2236770242385548, -0.29549108618111947, 0.9214513811210115, 0.11578778522479204, -0.05604637576752352, 0.3723699045699936, 0.8914479312444455, -0.043316231430436156, 0.613137773021016, -0.10796407979630156, -0.7450495556443938, -0.5521498254791237, -0.3734020638573976, -0.08548996737230456, -0.7933949018597045, -0.8035045052698021, 1.0422935052501627, 0.9344601356529313, -0.8816682790794665, -0.29819611712737853, -0.27716253396544316, -0.4136334258693535, 0.7169350406828445, -0.2760865055500588, 1.0732518328294225, 0.46462359938659326, 0.4659881077954341, 0.38167493895047994, -0.2889880117360693, 0.10402280710189211, 0.06827823954749264, -0.7759881008957358, 0.8947353844575016, 0.3881697945199072, -0.03972677443705576, 0.5728877914580193, -0.4371693143095273, -0.6106665374408496, -0.10932752320465393, -0.21393413106988549, 0.7540999251881274, -0.06928386502557307, -0.7954026591977554, 0.059134785989659565, 0.7687797823962854, -0.4424602225226835, 0.3298857642656583, 1.0595341381401426, 0.6064582918536415, -0.5049208235203482, 0.455738310478862, -0.6610897629079301, 0.562353420623543, -0.48817887189090875, 0.367307107185061, 0.9284486863388393, 0.45508897153575956, 0.21386898877357666, -0.0835423128368193, -0.1055693824761252, 0.8796803326762953, -0.7779719916402212, -0.2980289141296614, 0.49312069354579957, -0.590326682880782, -0.5409406131057302, 0.8078603907965884, -0.8220126794368625, 0.06478436878725709, -0.2924944197386752, 0.11249490177919422, -0.7726825654437343, -0.9125257267924869, -0.4563073174143781, 0.15839599903850624, 0.39632336517269384, -0.4315657731552569, -0.6804232951991289, -0.3742366933883491, 0.5482251901290139, 0.5067053555046739, -0.16264860558463226, -0.14311392306458284, -0.7100856583440371, -0.677343788604969, 0.5294007961260916, 0.6824321778999202, -0.0704048829618473, 0.6820408034606886, -0.6726100235444714, -0.03903044388437584, -0.09325999180630806, -0.24796172632163258, -0.77807804145624, 0.9778773558647259, 0.9249230804351073, 0.5049694121493675, -0.8664156404727995, -0.8762127761899596, -0.7692745974793469, 0.06109057461825525, 0.6932697168181979, -0.2746228411401427, -0.124928796202391, -0.32901906213566307, 0.1881131276334169, 0.08120572125791621, 0.14685939858808014, 0.12601404936610958, -0.4773711343596308, 0.3948613776428049, -0.4433119870874894, -0.561511513998299, -0.3908240335808254, 0.6597863142141218, 0.42589867232342593, -0.9004282764145443, -0.11925263422325309, -0.623989583514028, -0.052407453023236454, -0.053143043810718965, -0.662846323004146, 0.4729305051195, 0.5262589199457492, 0.7910424183520778, 0.8918488199162975, 0.12419898040310247, 0.05206137818765807, -0.39485148132540226, 0.8048739227477716, -0.42452929323014726, 0.22262124911303383, 0.9362230063798702, 0.16190643260800272, -0.7399287333221646, -0.7328697424510442, -0.73038609912679, -0.06582038137713805, 0.05553148282986035, 0.2933103353099506, -0.5860560349416661, -0.2743120268635235, 0.25007740600720957, 0.6327360888312504, 0.7387969766223365, 0.6380301942368379, 0.19075435788271763, 0.12469553060504698, -0.12444067251405709, -0.10286291616328921, 0.8623681828208063, -0.4583791628199192, 0.7862120301731909, 0.6784948682910985, 0.9296818913404549, 0.1707742718230508, 0.8017748730437091, 0.7871199296097708, 0.6923167364028723, 0.8372923034845452, 0.19632280051666848, 0.9898084432799584, -0.6478799712388883, -0.13606129157999036, -0.5267931781297857, -0.7342343453190223, 0.6558968910880948, 0.7958936969239269, -0.5681876182560844, 0.6685550365307923, -0.21426718839383505, 0.32427349555200125, 0.8887038559558549, -0.5780042233664558, 0.8997327810827039, 0.4757470862481128, -0.8746426960685207, 0.7560659903156315, -0.6562264575850236, -0.5374836516422637, 0.5660316495111569, 0.017244675970158625, -0.24980575629269466, 0.8348923720932443, 0.7557359842177154, -0.03082242025543052, -0.8164887875535014, 0.07547636356416186, -0.478747596238711, 0.08457189705578254, 0.5005888635544924, 0.2268079087298938, 1.0056439615822748, 0.9732505915352805, -0.819689798745371, -0.31536332950446083, 0.21402137265923576, 0.13044406523978794, 0.5655333087335214, 0.017898472775269923, 0.21118311780387056, 0.8359083978055718, 0.7951519545571104, -0.6451214689535143, 0.508005787284452, 0.2055031239290876, 1.0780280753936569, -0.2668204706381182, -0.5977272168223543, -0.07285367260109338, 0.2688292807789238, 0.41547522865229897, 0.559289006934705, -0.12036107165502088, 0.6939844887273421, 0.6267263245846636, -0.6140594501083608, -0.5657753451732916, 0.15139245379935257, 0.11353601464018843, 0.7129682147938964, -0.39775073562314717, 0.2029618602295998, 0.058600069419302916, -0.8003630083274504},
{0.18882886124438908, 0.269654671038361, 0.8391987621855821, -0.06779246904582463, 0.363393290090695, 1.059668402606992, 0.6828928909018448, 0.5740532300187221, -0.14498435055598177, -0.6409131442123677, 0.37476131400058815, -0.8183762667985869, -0.13878422371130056, -0.33152297821133575, -0.5209287460617461, 0.6887771051372263, -0.20350186725340547, -0.7339889864217605, 0.06454768613696747, 0.9347672014018068, 0.49941637948471657, 0.7918017599817588, -0.11279696772901363, 0.4800879581098465, -0.8679642055091198, -0.5005191249782098, 0.6820945100236185, 0.07800742714055954, -0.6636969749413288, -0.48287493283700067, -0.6189112080517928, 0.8084293655461355, 0.7144379341014607, 0.04910865208675553, -0.1708572089917026, 0.22863390986234275, -0.2959807322685995, 0.1467861106990596, 0.035966812467258906, -0.43009517817131904, -0.3220856994641849, 0.5465965824886545, -0.3362012533658928, -0.1244709212547994, -0.20325028543372203, 0.13419125618194977, -0.12858282433445795, -0.4394939563049908, 0.1696037160337982, 0.7546644063883696, 0.7783319591879575, -0.6943683356636701, -0.8760933829501677, 0.5844580196677337, -0.36972705421059365, -0.6318280892965636, -0.8418754415360314, -0.37939588301406635, -0.26552356974029223, -0.179291024739743, 0.6748846342847099, 0.39163787652079335, -0.6027004796033769, -0.2136511584867796, -0.5074464986349077, 0.16923593201568995, -0.39165311139750836, 1.0227404861776657, 1.0748782931304808, 0.7796381885667392, -0.8863503525684554, -0.5581437332977205, 0.355272859396524, 0.23894903043959612, 1.0525416993781451, 0.9981403235571741, -0.6052596443195595, -0.18703074660841912, -0.20555256528849622, -0.2784148037899507, 0.24577204972360905, -0.06114194291781496, -0.712307285141568, -0.5448871642130045, 0.3964551538926477, -0.5815613148890757, -0.34940911279461584, 0.8953079988548817, -0.5042901186404467, 0.0012472810092635212, 0.9819802919151448, 0.6276134763724656, 0.8233721915496692, 0.5355013333368595, -0.43993620788294574, 0.6602262211508398, -0.2629579385312806, 1.010809422524089, 0.5152520138056694, 0.6710295574294041, 0.3589139957648465, 0.6028340210752634, -0.4871327870563537, -0.3442387811120238, 0.6856901982020903, -0.26951536822950384, -0.6598369999097009, 0.5986251043535803, 1.0523696181813773, -0.19477745559004747, 0.5650125076838374, 0.03891107460715252, -0.7608579690504843, 0.8059681447571972, 0.04455299206809812, -0.3171769986107732, 0.6540876048897114, -0.5680331291175184, -0.694051097111115, -0.8942576861084005, -0.0626081052233689, 0.2436799610221754, 0.5745084433122762, 0.01824887343571199, 0.15369126650432904, -0.4308531962108297, -0.8715610762581031, -0.2923474313930499, 0.6279638373420282, -0.7684793085754532, 0.3030070154632542, 0.01106530688828668, 0.9961078235881649, 0.2635105271015973, 0.707725438625526, -0.23523488076233812, 0.32280029574774666, -0.5691179076496107, 0.11070828832077967, 0.9319554767132827, -0.6565609388036946, -0.849328062417829, 0.24092037585841247, 1.0133730140600696, -0.7480159834702002, 0.7008531666905589, -0.470983909026086, -0.8088776868510095, 0.14207382637901655, -0.22568551304708417, -0.9103793102347807, 0.4367937186522782, 0.191997666871831, -0.123371128302183, -0.0601498169808243, 0.8838440637510341, -0.6602239692229495, -0.7154264554220322, 0.40535899399417585, 0.9804113547024526, -0.3855051233628567, 0.7998385108657755, -0.13104829112315505, -0.5803525645593738, 0.038701845706946285, 0.03446592663402132, -0.03020265847549618, 0.09347866033477503, -0.22101623769767237, 0.06533454108313247, 0.24730295291323925, 0.9738392066866638, 0.9249629688932588, -0.04530308169611602, 0.9734423939730319, 0.04682403596777527, 0.8467031039871247, 1.020414132841976, -0.10884982094276349, -0.5547922650134441, 0.36881185793848026, 0.09001277490615674, 0.7068350466956079, 0.6903039770954442, 0.4139441517043977, -0.40566027511691394, -0.3586272692347304, -0.8189701392742292, 0.25406946620830295, 0.9800862699216497, -0.7516947075700458, 0.6493949560139751, 0.3681878167599437, -0.48125602603032863, 0.2676750050224293, 0.19064367466846224, -0.2037647693678078, 0.7301071568729004, 0.008460927653391495, 0.752893503513877, -0.2287781277655237, -0.6102169146745223, 0.23256991360598864, 0.6227181517508522, 1.0239709665533399, 0.08912508906762767, -0.47366930001337554, 0.8573964407385523, 0.5746906886893328, 0.4543282703070867, 0.7205674009200588, -0.39092953656600987, 0.9731985782034931, 1.0530896061738655, -0.4876210342572734, 0.7662018018691507, -0.05701389284730359, 0.6150239259189036, -0.8899998152049705, 1.0088791680002578, -0.44528452389216755, 0.9422538002849336, -0.7842324264773051, -0.5507833861730245, 0.8134846950291127},
{-4.694104988948211, -4.054539296188512, -3.576777187160171, -2.984207547210041, -2.824046223327916, -3.033235788029134, -1.0512265193360075, -7.957672133806141, -7.79894139492552, -5.915709509092473, -5.955138774093799, -5.9758781736907745, -6.111516020516049, -5.178388913857824, -8.0572547268997, -8.639649777711382, -7.617296337162047, -7.045667466726666, -4.646228298115232, -1.6503652021207509, 0.5690126116457493, -7.914814748793817, -6.145521231386477, -5.4660030712953755, -4.008288309167499, -3.690796840871197, -1.923585232345602, -2.0020861518771214, -8.282055975436215, -8.188823568319519, -8.254160536171282, -8.05964511692373, -8.147023698240504, -8.142304567329091, -8.090228733418222, -8.226768872498255, -8.535636789612319, -8.30272942183101, -8.686752451607132, -8.166723443161128, -1.5609664254995603, -1.6966462294517954, -0.6901379062234352, -8.219106574883032, -7.749415869978476, -4.776888182397113, -1.8943807177824241, -0.8084642972006272, -1.0166336812432946, 0.24217883529828477, -8.088119067466799, -8.001979720290556, -8.100594569631982, -7.962901503570268, -1.2753956984533459, -0.07010461839311528, -0.7849021422457636, -8.104523583301605, -8.353771177687232, -8.424596066330219, -8.123306554166753, -8.14601178247022, -0.8788998006560852, -0.05455348789200742, -4.577627573088008, -4.574552925608281, -4.360978078722532, -7.483316155183208, -8.03534889535167, -8.079541863183932, -7.794818896151579, -8.04840574328637, 0.4471212052093332, -7.740244928309548, -6.12795392823552, -5.231331587485448, -3.024000774055684, -2.5910066425722555, -1.7123199335805153, -0.11498818698333856, -8.377341636411911, -8.310939076822553, -8.141578976105798, -7.9493642466968435, -7.770747569896936, -7.7226796394705595, -5.097386762645001, -8.237757377902225, -8.22873004631463, -6.2353601369048715, -5.166542086317514, -2.803017638179961, -2.747437568424352, 0.3940892961561067, -7.956834380532999, -7.701287131577542, -6.149196177975493, -5.519252747996409, -5.38244595987619, -2.1973201087103584, -0.84600002176716, -7.4302460747276005, -6.4119144819563205, -6.377722419318158, -3.634485240966027, -0.4505866964397823, 0.2554559259873366, 0.27641159961938294, -7.811773578698099, -6.121834325434417, -4.8343916741442845, -3.3057072042235585, -2.77574524773317, -0.9741608323839027, -0.24733231879197082, -8.270483796317324, -8.178171709867124, -8.226571583949157, -8.005944927773344, -6.779320670930947, 0.42745371651259395, 0.6105503870894387, -8.131654007090688, -8.285536964055527, -8.321432358526124, -6.723711323841054, -1.5058710098818306, 0.7001295655588918, -0.00892014229729489, -7.694340449856921, -8.065732024250922, -5.362075657147317, 0.11214603515857675, 0.44301110585492226, -0.5735848539180053, -0.1647271300753399, -7.98816629567402, -8.074943825266574, -7.795749387890197, -7.070495465632602, 0.22977979061551046, -0.004341034923675831, -0.8257689274577267, -8.505455345006911, -8.131604841762579, -8.15956137144813, -8.073720335426279, -8.346646878077447, -1.4225227462825447, 0.11641670323893163, -8.085267221872014, -8.02805061805505, -7.720691539023322, -7.9029347772696115, -0.659012503059185, 0.2403969543702381, 0.54136345153349, -7.828211935719796, -8.282194744070873, -7.809634250708249, -8.494632955970241, -8.132785191506066, -8.615637737261961, -8.317489187138042, -8.426819957161353, -5.36074887427242, -4.224056057419465, -4.135363353700525, -3.512583055196133, -2.723194804889183, -2.0433289428746155, 0.44941496616071674, -7.837445462158613, -7.8320273202043085, -7.316020637867531, -7.088600071910688, -6.786519444511451, -6.307036712428665, -6.367493527178875, -7.492259673998537, -7.500119584345756, -6.41161308091168, -4.768118755576107, -2.1019251780635027, -1.3993050400019238, -1.034005529514201, -8.430730186340291, -7.906589740821788, -7.66998001100298, -7.035094006450266, -4.771621570008333, -2.9954451120166463, -2.8538157444662855, -8.263587470704513, -8.017781102732798, -0.408924824183949, -0.07795979015041245, -8.037427928288592, -8.027795323938106, -3.7034806613016578, -4.074893616985033, -8.228274846906178, -7.981034095867307, -2.4205307623954364, -4.947388652987083, -7.927658928020646, -8.200275406872695, -7.423621532454192, -7.957038880237548, -8.081283766759787, -8.309157522135921, -8.210168915041638, -8.91987622687911, -8.284933866033708, -8.369605648996874, -8.303315386548121, -4.17546095262993, -8.069072910626323, -8.302753038151888, -6.539290047967853, -3.855495970680234, -7.986631677556287, -8.29358490394242, -1.3868544782033925, -0.593524384952965},
{0.6991832184106358, -0.3600327546456521, 1.052509414622915, -0.13772695822588082, 0.2314603789313705, 1.0336645373904252, 0.009579650117409966, 1.0744396974955428, 1.0623505016853854, -0.5742626322222286, 0.38199257441506496, -0.2501480491617675, -0.28596194398769503, 0.2673200712762238, -0.37158145664922226, 0.3068264717973798, -0.8552362304116474, -0.4221168951615775, -0.2297051259230795, -0.6196953435218927, 0.9687687393381234, -0.736002699239888, 0.9926465516527075, -0.6773204224953043, 0.5287418948248357, 0.507152305889903, -0.7444671432552485, 0.866666136944623, -0.6296373339602037, -0.8863775991432964, -0.7999376624579212, -0.6576790724266203, -0.7409206331587088, -0.7069528755422735, 0.31213117565212306, -0.6135839395845107, -0.6231222794346158, 0.404277623040876, 0.7705767240427414, -0.4582577756433414, -0.7902618959932576, -0.3529947343332421, -0.3339273642366404, 0.9940045659741689, 0.7545664084385237, 0.6804728389963428, 0.38870812502919005, 0.9393429133383128, 0.7950824983823658, -0.04338287336575908, 0.20794430727558996, -0.8458647365450426, -0.15108947358987682, 0.23088261457807652, -0.7221077574482696, 0.7970245047297924, -0.04142195223488909, -0.023111218902536583, 0.5520385556984934, 0.6947647477145494, -0.10281702345829352, 0.11661625081616593, -0.5826632303103595, -0.7441917594983419, -0.1098511500360329, 0.6279048767371278, 0.8713398806996828, 0.15766433363262822, 0.8100289323746376, 0.38354284733474764, -0.04204853166173047, 1.0066991379645014, -0.45874096794104613, -0.07835433561841128, 0.3933545053508262, -0.05308361345530143, -0.8640610520226586, -0.9172382981607738, 0.5863127422302878, -0.7813596470090344, 0.5183810089677369, -0.791984488491998, 0.49803639982876186, -0.8350266173066284, 0.2767684524636078, 0.04528755898812337, 0.5246004683448093, 0.6510524418831922, 1.010746361978122, 0.7353473854204661, 0.9690124337005656, 0.18291663448878626, -0.5790233306186422, -0.3483259584197774, -0.8469380020809907, 0.48414776388310643, 0.7623887893921834, -0.05814705752338222, -0.49535730898894115, -0.29974492027757055, -0.7783680513181932, 0.44743348856310755, 0.6290784917868197, 0.35834369657048265, -0.7037011331976516, -0.36139020834706465, 0.03944025473718745, 0.7302551247788228, -0.008126740342936938, 0.8334698916886483, 0.7168662939671507, 0.9451350050472608, 0.6137624868584948, -0.4473894331621705, -0.2916660567063618, 0.12756641843457023, -0.015659263574926405, -0.5861044385311718, -0.7911324149455894, 0.10489903719186221, -0.4862855501644858, 0.7305183642262457, 0.04112442528037978, -0.6078166816055546, 0.23620411430341526, 0.34113259377506583, 0.16292814805609368, -0.43784932689843337, -0.4778609569001706, 0.5161641361796446, 0.12471201062833763, -0.30389223614145916, -0.4640058607060355, 0.9149476985635019, 0.6904545350076984, -0.5367207569915116, -0.4575262134721443, 0.3253101550957984, 0.14059141952192805, 0.31512863158908005, 1.0147356325649497, -0.4495703368132338, 0.792044899590375, 0.13239806906713686, -0.7781928837745833, 0.36899003876255615, 0.3293042695107931, 0.22198928618238725, -0.7507692049499795, -0.5265635612737887, 0.11109072052353512, -0.4738227629944668, 0.6796878234980647, 0.9565089231891826, 0.6091144089513948, 0.7814207298433749, 0.34541844374203534, -0.047213306679992365, -0.7165104469945585, 0.2554354101264034, 0.5062733285481748, -0.15786441673583643, 0.90813082122802, 1.0164495347017184, 0.9144499732675169, 0.7123899694531225, -0.7797139074971141, -0.39065641116259686, 0.09198666601115134, -0.9127773800887333, 0.34707000032813023, -0.23003714088789343, 0.4620051181136735, -0.4546818290991527, 0.21307632950451824, -0.003928393423928653, 0.9244738820723799, -0.8395596277175607, -0.5369288748485187, -0.7218819279216047, 0.2903208208025113, 0.5383129991651892, 0.9104190247977824, -0.8600243357762083, 0.6354260204277393, 0.96929175186498, 0.21451665079485044, -0.3004599994229295, 0.41048764832593065, 0.022835844677382325, -0.5150219295284584, -0.3944399345058907, -0.21444106268693652, 0.49008294409594566, 0.9114641476286042, 0.2852381748467397, 0.46919586960002463, -0.3538884784042273, 0.7059905216094253, 0.28698871450386215, 0.1014923839827889, -0.3965346478853234, 0.2621736575442691, -0.6431487216100865, -0.6368507104486115, -0.27444416474332317, 0.8424188847524017, 0.22598783126223013, -0.6879307469866164, -0.8949064917381957, 0.12026041499751025, 0.9624866395778396, 0.16835291715941844, -0.08134291136037575, -0.8017076688528482, 0.6265911967271756, 0.26545831690025706, 0.5402449345991729, 0.3949486973303848, 0.19374677357012565, -0.7891441162617728, 0.5774558746576347, 0.546848571715662, 0.3238552932469231, 0.21706237233480116},
{0.7159267683423645, 0.6405920469742732, 0.6879826134195526, -0.8985632332959895, -0.3271358281070512, 0.949951839959089, -0.30401316979711474, -0.6067374956907744, 0.6840358277997786, 0.9940905962469178, 0.7453122139621189, 0.6725081122930195, -0.581837649196468, 0.22088019633025952, 0.9548112592432152, 1.089884317539404, -0.35134863198323346, -0.27415148047981264, -0.03377982804157203, -0.6254044690974572, -0.15405171396974066, -0.1041261329036346, -0.8906119690800967, 0.3004832613457375, 0.14129119696063341, 0.9802056321526562, 0.8710390275260075, -0.10123744542144004, -0.5851523006340708, -0.5940719914575536, 0.5780249492217613, -0.2652437635376383, 0.2602055657910155, -0.6201932582987126, 0.6565125568702302, -0.5652744198765424, 0.2587652733814131, 0.6798965583933939, 0.5352393132003814, 0.14424799219967654, 0.2411901762792784, -0.2928139973058877, 0.47225311299361483, 0.3759806716328856, -0.469895449898544, 0.09936149182891722, 0.925218645492517, 0.9596082832752699, 0.3054234429223096, -0.3063744796836685, -0.82742523223528, -0.0028354489382268213, 1.0505077815684771, -0.6290835168680786, -0.5454297174492772, -0.459845762329441, -0.6768840095785205, 0.6619044037775459, -0.0749692724469278, 0.9428685727944683, 0.06074896820501573, -0.6032717258885767, 0.44757176610305255, 0.2532960342887046, -0.33578561108856697, 0.7892549980853386, -0.0035483471268112935, 0.7642743303538398, 0.32237807913098143, -0.32358780266839166, 0.7810585224900998, -0.4491862131781817, 0.9173178342013943, 0.45896052562027106, 0.08947302041972095, -0.5745950736636919, 0.6501403407324342, -0.12076485433790332, 0.5455932322241718, -0.5880571680404992, -0.8507247433473449, -0.29508279198418813, -0.28775863113836003, 0.7949570739463062, 0.6633521740023076, 0.06187048415127259, -0.3885206607807917, -0.4294564590631965, 0.8778668656766723, 0.010067170490177853, -0.6873147472427482, 0.45080850549160945, -0.08113401185316013, -0.043744242920552, -0.5234003667323007, 0.20460127182825028, 1.0097775050435887, -0.8546964637913891, -0.2557434453984027, 0.1368111394251135, 0.3882745494553896, -0.44135733843730157, 0.9514948931857732, 0.027952021126320517, 1.0522061853823135, -0.8021448296380962, -0.34824604123347236, 0.2943792726632521, -0.2002616554758165, 0.5434715706716358, -0.8432571755549654, 0.33339795090984964, 0.5890005668049151, -0.6815885249357049, -0.6784338675903006, 0.7978714056463151, -0.7499026111294168, -0.6232345238597004, -0.2376275335388242, -0.5849755413024911, 0.9446816875933334, -0.9508826976982993, -0.567614749599514, 0.8907578718454762, -0.6473258713110122, 0.821207253210823, -0.2630103688227165, -0.45241376913478404, 0.84778837580556, 0.2514078339986554, -0.7483106006673613, 0.5519694120639212, 0.3218709859281211, -0.6373104525904212, -0.10095209177639655, -0.7375244314232945, 1.0208659435593068, 0.17863106413128715, -0.5268616443835522, -0.18757396469522475, -0.6462262349093233, 1.0083748348830655, 0.7884002350395329, -0.48908018051367913, -0.4489497533256841, 0.13018698526644293, -0.38860507753121587, -0.867387553099235, -0.2412666806010544, -0.8753858264954031, 0.43223724236068906, -0.4559067001960349, -0.6369737794788143, -0.2721376445227449, -0.06512886261894239, -0.007501180414739962, 0.5730408076079905, 0.4291727966828416, 0.5318451684228529, -0.3206548831083078, -0.2877031709482721, 0.3184183888104457, 0.8402378713396429, 0.5652763561992068, -0.07820719187109668, -0.8966153664487884, -0.7958585520327883, -0.2941585344468926, -0.600176856592609, -0.23278502549630237, 0.6486648603547913, 0.08774394537933347, 0.7210509914294578, -0.6578182559758936, 1.000289276431906, -0.32434077502267106, 0.2531198414241934, 0.15615598039945772, 0.7118968269102236, -0.2856107094784904, -0.39152907999985864, 0.09070200709606363, 1.0493929675540954, -0.3212100268528657, 0.42233464903872975, -0.26452974083917946, -0.4422875257536672, 0.7874316897634199, 0.2797785236286891, -0.6323762728478723, 0.40281533865435715, -0.4417579850540597, -0.6935359548255114, -0.005437622064634801, -0.14115028580612965, -0.5488700660754806, -0.7593126136497759, -0.11006463847474275, -0.677445409301996, 0.4435062116223003, 0.7040174989919397, -0.30173486005089434, -0.6541066460384772, -0.8678796598775221, 0.28920744720144453, -0.49703331194129596, 0.8632562887306794, -0.14735386043327464, 0.9673471063496645, 0.5394107347746652, 0.011356778352977452, 0.04305840964342921, 0.2963505504846823, -0.3163463437736243, 0.851641306607731, -0.5410812555667649, -0.12151545811253606, 0.4818769658340239, -0.12538684048398333, 1.0253739563994955, 0.8267301862093275, -0.08576983573390244, 0.7532874631871017, 0.16942009761879462, -0.2208654777674862},
{0.35117669049150463, 0.6414004060720566, 0.5545700279937444, -0.74553577016469, 1.037400394271284, -0.5567001871514249, 0.7727343311036204, -0.0448473826487478, 0.16297274625522343, 0.8230675533512755, 0.6658860574341131, 0.21627804962077105, -0.006500228391124011, -0.7680076531204953, -0.5840157537431045, 0.3398836560164838, -0.3515235592768713, 0.13367715378410716, 0.9425831200409286, 0.7048655089626246, -0.3073614900833777, 0.36978053592132676, -0.49167844491363727, -0.6849389074295769, -0.05444545219672756, 0.05536849635621169, 0.596236627804996, 0.1853363121232123, 0.18932309537050854, -0.8299536204606186, 0.3409186948899254, 0.21032936844561628, -0.10356903086313081, -0.6303607659249967, 0.5947434834287398, 0.4637672375426747, -0.7477850338937798, 0.8894017347050833, -0.9271243824447127, -0.4093876643773781, -0.2560837653233418, 0.3536831416848469, -0.8550211033358379, -0.6510740054629566, -0.16139686849284807, 0.07984200388764505, 0.3278741518675091, 0.5042201144448493, 0.12580472897803088, -0.05600134873959761, 0.3965060781578804, -0.08855002804750148, -0.3280738886464044, -0.5997586476685217, 0.8556511198177006, -0.5503862719877892, -0.6814986621246419, -0.10772250945683011, 0.16934605870650174, 0.5307163294702634, 0.8003766545744571, -0.4146727327009833, -0.41109305226119747, -0.2609840616873972, -0.5708425044753542, -0.8498201034186137, 0.31150181018730905, 0.48140792990650805, 0.2419145466607237, -0.008138343855802045, 0.67324804917599, -0.7341132138829861, -0.26034608803437087, 0.5527020714364441, -0.491542708376988, 0.7771070592691336, -0.43277606418542974, 0.9807156280262155, 0.2695780038434963, 0.9851749455955726, 0.6798116214475954, 0.26424285385514923, 0.01791888795857183, -0.9038613187394365, 0.7336878573146038, -0.39448290983486806, -0.7414102099890995, 0.17056818925185066, -0.4607977570628254, -0.7499330596787297, 0.6520626152177793, 0.536007261772761, 0.19275736031967058, 0.9512764362472929, -0.9033680171341104, 0.2607501159980317, -0.02362145464692341, -0.5617905618478496, 1.029401505443843, 0.0026903201295596173, -0.8146151470187113, -0.6663617481113039, 0.1797213568542053, -0.6707890090126076, -0.742262755523299, -0.6912291743052343, 0.21943986531593268, 0.029500976521892493, 0.5560561122167844, 0.034931695677495316, 0.006450325823465391, 0.6233288164017688, -0.7795495374653708, -0.9179911470028995, 0.11941051945412579, -0.33842600674954176, 0.32205413662574556, -0.6159666392986796, -0.4778099253826643, 0.4305374046631935, -0.25796471610830685, 0.1050832264990857, 0.5991548290655269, -0.72778836973094, -0.08309885660245898, 0.26728844583812333, -0.49044760471737064, -0.30167073100977615, -0.9660003441243852, 0.8959407771017558, 0.11013073869974964, -0.6119358292747753, -0.39381715001291, 0.630083358748909, 0.4267985270556552, 0.03030726766064218, -0.05714670985117426, -0.5527391761928768, 0.6191353325666191, -0.20657902338589323, -0.46575426805298065, -0.9126950718309682, -0.7939455149731791, 0.21687536428994475, 0.427568229338443, 0.6968659531140673, -0.47946660392854845, -0.0906993777345763, 1.0313139807243594, -0.7426790702035972, 0.6544282190231568, -0.8088817222207676, -0.12230056332738447, -0.5354021334628407, 0.6155020444929489, -0.6742042325821591, -0.9645879981449412, 0.602817938670632, -0.5991155295490318, 0.05684685829956189, -0.5621103243348188, -0.7439968495683006, 0.3924722920205819, -0.7160613868923723, 0.26319915066374117, -0.2956799438829596, -0.29432376150927014, 0.22994825821140266, 0.4385217172422144, 0.2352981118114816, 1.0226390136592753, 0.4052169772320934, -0.2688369706856147, -0.07289670306671454, -0.6689339716446979, -0.20406759581679224, -0.2540166664471616, 0.7079269198039367, 0.7657918221877313, 0.3677546504471476, 0.5471246130621213, 0.35907940684392753, -0.5075792382317383, 0.7458829552883108, -0.13826380764396073, -0.3502409479644609, 0.3164251272651552, 0.2682582659501929, 1.053048308444047, 0.11062300153312564, -0.6006989858137081, -0.20705068548880004, -0.10064984883654847, 0.940825385326131, 0.519407880258599, 0.3240753593724089, -0.7028330411625672, 0.5586686978562208, -0.7009641788215736, 0.336157996225563, 0.492187483594954, 0.410488878572986, 0.4779466506945463, 0.20059519094507738, 0.8264425272533166, 0.03061012560597702, -0.23023120563653013, 0.11748802569392186, -0.4350471032344847, 0.308682510075382, -0.5520699644681656, -0.6288908383206235, 1.0519546937626303, 0.09445620065860266, 0.7165129403099841, 0.42302917374424404, 0.8612760387067417, 0.5849255337231213, -0.657482545550063, -0.03563085186285962, 0.3819145452352465, -0.04430427668946075, -0.05028839805174828, 0.4698722745918325, -0.4165540332796778},
{0.8995568248045093, 0.38173490681678507, -0.7629642535015886, 0.4441661195258391, 0.691151812940874, 0.23716525547877346, -0.19180202040577274, -0.1518733791926378, 0.25803603025522964, 0.8446487979342099, 1.0559906038140452, 0.6837216165426795, 0.056305837184358914, 0.07791934698474404, 0.9865351514050258, 0.679816138685988, -0.41316147651604324, 0.7498586980103304, -0.6860533882126149, 0.31134141237547935, -0.2001612096260956, -0.6223882250108195, 0.88007727818683, 0.027185027821377036, -0.24325176273609533, -0.5699877870995749, -0.5882434336054077, 0.6217270340481491, 0.6324152001796925, 0.5983878743573415, 0.8259697424841121, -0.06395935749247168, 0.2289596525460681, 0.7671839829407909, 0.8253968017289239, -0.2839918338098466, -0.29714224977104153, -0.020204002597173972, -0.23737220834722508, -0.5866590353747066, -0.893591297869605, 0.3728554630057043, -0.9417056810738276, -0.3694924094115169, 0.9187191591596606, -0.4699364769144857, -0.2659174441956652, -0.6982062100473211, -0.8228800539238131, -0.9497264756360284, -0.5248435676341523, 0.5531668923976601, 0.060567426023483424, -0.049663139289941156, 0.8053453837116406, 0.09380352003245868, -0.003693031982758832, -0.8091802459947919, -0.6588590751709418, 0.4311633858756066, -0.17426097169962618, 0.3754801617642546, -0.45811596982580255, -0.8775683969645501, -0.670958801816292, -0.6956111516731772, -0.6409274765467097, 0.6955470151716487, -0.5460501854140173, -0.4033338638193038, -0.5024080884594295, -0.5320010375519487, -0.9858522507741518, -0.3458918295269457, 0.04038672729172704, 0.4831511737203221, -0.4280608929054095, -0.42487675317078444, 0.4196257641094704, -0.7066306026752679, -0.36663740217612134, 0.23181639103292898, 0.860255503597665, -0.27506602994154356, 0.6568782066045732, 0.054163034915238696, 0.2673793196930424, -0.19634834647667782, -0.1980352054482114, 1.0600511720987247, -0.46112002468235685, 0.322515495196982, 0.5332604769189448, 0.4235020787324305, 1.0028619555978022, 0.08895570439066541, 0.803105995454695, 0.2814334027719649, -0.2870104806245147, 0.45751029842281704, 0.05047179100052831, -0.4774013977085589, -0.631186972577083, -0.5164646295882867, -0.1364970129709831, 0.014465262266908297, 0.27788403600675643, 0.743417129180104, -0.41120887399754813, 0.8631695781211755, -0.49740569069616686, 0.37966496462733157, 0.12867568818979153, -0.6784094077316781, 0.26905921024391843, -0.03096284448676955, 0.8816427679931577, 0.3577597296982542, 0.4281195109653421, -0.049097532898115505, -0.47176928575550886, 0.9989465144839468, 0.8084925635465007, -0.3514206406904111, -0.43396201641337534, -0.7046520679828334, 0.7231922794910323, -0.8928507986951729, -0.6530862968493611, -0.3275548890390682, -0.22973864301272962, -0.2397231826407769, 1.0395334308726005, 0.2502337162292113, 0.8586355931805149, -0.4507953965909117, 0.5869289021242918, 0.17080740209268186, -0.49562288790031434, 0.28998814636389886, -0.15506797566146033, 0.5625952874872366, -0.16596017238137367, -0.3703585823598496, -0.6932871663080198, 0.5811687322371599, 0.6395140477314311, -0.2008354840561029, 0.7496033354784342, -0.9357671287508815, -0.20265857141974317, 0.9831094128309558, 0.674154044281003, 0.9251740907749267, -0.9034117052280334, 0.34583980480355914, 0.5931120634531966, 0.3782780460874668, 0.2682454307976503, -0.7824469510625098, -0.03254310912716844, 0.7652410837793567, 0.3039522194058319, -0.28250261937310106, -0.04041412509132051, 0.854577371623731, -0.5808089725189554, -0.4687270663087302, 0.2784571972388664, -0.026082579836729076, 0.7837858050126488, 0.7044765043615824, -0.01853660594887473, 0.6227135288318683, -0.2157470035142598, 0.15583199347051516, 0.8829741721202655, 0.44705629550381903, 1.0177269703491438, -0.6220723548264765, 0.6327790810640396, -0.5275284860258322, 1.0755407245425577, 0.3342759345438224, -0.5939318367360801, 0.5930065398634368, 0.5825483861426212, -0.6738252094410367, 0.24894416313983034, 0.3689726327476458, -0.3708931735997062, -0.11873761973631447, 0.11507670134922877, 0.7423112303163859, 0.3330365885447675, -0.7861449643286862, 0.46179615539198743, 0.23089604210509407, 0.7775945273277317, 0.4076963075260108, 0.38340868669287514, -0.258170351941847, 0.03394022199290357, 0.4766312740722519, 0.16840409690805008, -0.40475731306552165, -0.4770344355472704, -0.0070378403834547255, -0.8234424006972194, -0.7940112962152569, 0.5717858272710135, -0.16436684291373602, 0.6987476201756588, 0.7007457348054892, 0.39415662888053765, 0.6019747738244893, 0.34791282117295985, -0.3931957792900043, 0.7353209450746795, 0.6355554617130355, -0.476320437513066, -0.1708704131564388, 0.9510705939711571, 0.9800714485416415, -0.514519158253845},
{0.6809400974346661, 0.44927630210288055, 0.8658067950779214, 0.7285350196718107, 1.0733392299828175, -0.7884336420739118, -0.6026780805497706, 0.3731288471691563, -0.4062290669838533, -0.6405402388018387, -0.6576055974129074, -0.38503598137140554, 0.21612691985737253, -0.5172885769171038, -0.3193945621097056, 0.22645772742117004, 0.1956050227163722, -0.15130894594602085, -0.4583948995648363, -0.02912038972484344, 0.45167530472637996, 1.024760950637121, 0.17753824628823092, -0.26482266845914887, 0.24913983231305367, 0.3311982555454393, 1.0314138445405463, 0.8196965047267862, 0.3841846814708936, 0.4687437813461817, 0.22713428217607087, -0.4655855039992733, 0.2802695370343225, 0.762550915230508, 0.8248681752679846, -0.17604837553483527, 0.2714490851180573, -0.8101123353585772, 0.36193082816860234, -0.7537564697300363, 0.8530148620274521, -0.792898070284981, -0.20159847880478446, -0.7233681072149062, 0.5433049718871571, 0.13677918218461635, 0.023444291517589623, -0.3624893398694203, 0.3259067756213543, -0.9239593283658505, 0.40744333383006825, 1.0122584323192496, -0.5263298928270076, -0.3397189169193745, 0.14802023627824556, -0.5021953812406292, 0.2572007129633489, -0.23997386585303895, -0.5154360412685616, 1.0231757397309131, 0.45198570777922886, 0.46412157798018516, -0.7979250449967538, -0.76722733101232, -0.828909621999373, -0.5814529847794531, 0.0064959773815812, -0.8675463644164745, -0.5156826427360784, -0.06293264521119694, -0.7936040189674457, 0.21671730444210952, -0.9971075129260774, -0.8262823146065091, -0.5330386385427363, -0.7627968513706499, -0.1705751294225981, 0.6324910672956374, 0.7947766387783995, -0.6426830735866736, 0.0435870652987628, -0.823203810445865, 1.0325575459374428, -0.597406154324876, 0.24806571765189372, -0.6931519095261462, 0.2195031347206039, 0.11015165138795302, -0.6947197859396782, -0.24653212587832418, -0.6903603126790024, 0.9976586590172931, -0.662775238250014, 0.6795846910761287, 0.552682656571443, 0.630305552749069, 0.5600745422953474, -0.674901001686577, 1.0412459691451954, -0.058627739361791206, 0.4644215758128258, 0.33024754179813526, -0.32600768877707026, 0.8920716777711024, 0.5040663331096095, 0.5094399485835375, 0.5834025164131241, 0.7012560447328354, -0.8194963430818966, 0.032698694577086705, -0.4284212044671003, 0.29570338628007686, 0.5243683978135448, 0.11002309095364345, 0.1857658281113426, -0.04620138829611138, 0.981431399901329, 0.4129553879479011, 0.5066168624136071, -0.8963501254543115, -0.5183746158691201, 0.7554700433031035, 0.9644356843736249, -0.14749045613216968, 0.13637039341922924, -0.48305651244042674, 0.6357365654463338, 0.836969415130305, -0.294177800887105, 0.1456222826433898, 0.5304344312109222, 0.12542068153419111, -0.6075540978322949, 0.787548840737353, -0.09750591228700581, -0.6981491098973902, -0.3877855594916478, 0.38444071281855285, -0.07904494857330152, 0.41256030491851, 0.30553399784557567, 0.8251520943105, -0.8824829225536477, -0.22370892221920932, -0.8470537611902854, -0.21180598679161028, -0.8237877358544149, 0.8908991631154042, -0.6514649572923767, 0.5343706538795772, 0.2428342551387633, -0.8798157679298994, 0.014483625738470222, 1.0660132192052165, 0.9819568744635888, -0.6908372637434419, 0.47636740984815606, -0.28236895249096017, -0.1568145958097588, 0.9266065169205491, 0.7071973864739182, -0.4223156516074444, 0.7378521900756687, 0.22481990676522268, 0.3749792121180441, 1.0083032974003814, -0.7135704028656135, -0.6090503034872775, 0.8722826717390385, -0.6099988397433038, -0.5929234029537269, 0.9653267196016262, 1.0924925974390496, -0.5840741989402021, -0.1624281291771882, -0.4169205189378326, -0.31969181610895275, -0.8926231185894514, -0.39498287807200816, -0.8888794445551119, -0.5385769552040365, -0.8549040868438585, 0.9425725096984299, -0.32085157190850977, 0.36747145943043324, 0.4187863967271849, -0.09900301268957412, -0.7318291415332724, 1.032103311662562, 1.0464082655382345, 0.2144093182029031, 1.0370931328488906, -0.8996255775736944, 0.28741911748995436, 0.76165636472672, -0.909146047449156, 0.7512934816393717, 0.3485045029219145, -0.7116888007191992, 0.8573446658711615, -0.7370929603121772, 0.5908467753832368, 0.520552099473804, 0.9600854213333249, -0.6485128546708551, 0.0925705849178792, -0.6199721186342702, 0.2964003021805023, 0.3508530341569285, -0.4456819201630317, -0.7762488857235498, -0.5746201478847893, 0.3358682618809486, -0.4834603666534623, -0.06702176516981095, -0.13469611154512498, -0.38269054882527986, -0.2970452756203045, 0.15657016911183466, 0.6685543427081839, 0.5422894015306388, 1.0770680560470585, 0.6738988349353835, -0.17388502468248607, 0.4808634158529758},
{0.5870465098071637, -0.29260719090888393, -0.25812001409298774, 0.48216714438086483, -0.8427237031099163, -0.09572826853087814, 0.7324918459097939, 1.0714154255614092, 0.1516025664948217, 0.42106798147396823, 0.2889558147967873, -0.43412803220795576, 0.9052329734929495, 0.4331769292700316, 0.31239019352268327, -0.41890683732832285, -0.12904507847206453, 1.000927031614815, 0.8156914066672794, 0.035233430489349474, 0.7097101586610876, 0.4258108420117328, -0.6778428931565806, -0.8219881151782559, -0.5139645952562174, 0.9275917804221335, 0.40993774993441584, -0.3689997417472162, 0.5211901751020412, -0.04782228277332, -0.6566877675417593, 0.3502180046501485, 0.22478748773822682, 0.4518730034075422, -0.8718018221744928, -0.3254319843359706, 0.1996758886111867, -0.1616645523973623, 0.22634250455961452, -0.7462866297148515, -0.6282954109165023, 1.0181743970639765, 0.6286369142501091, -0.4630277354380009, 0.8548423874136131, -0.17306461933418185, -0.911375840638529, 0.3941259211402763, -0.07904147351360068, -0.7285281458564548, 0.6338440641055982, -0.5887272420211921, -0.7906431358051059, 0.11441054991178302, -0.32410755477639885, 0.461879810307179, 0.5206387169972804, -0.7703295371336384, -0.49722156631673625, -0.6781196597718983, -0.6730601959848316, 0.38672082438118377, 0.48531573597811645, 0.5906718420489557, -0.06533731002505308, 0.12127081182530934, -0.6989491282726883, 1.0376116948223448, 0.5779931827538296, -0.8114723011597501, 0.590695582267519, -0.5829514036359507, 0.36993597749336304, 0.443175720668745, 0.7051575440908535, -0.10531065110165128, 0.3346091150209118, 0.49776109132361857, -0.6295503431674235, -0.2320691551825825, -0.8083753498460411, 0.4925193592374977, -0.14428032086663878, 0.6836754948405507, 0.8896716804162533, 0.3805973209328244, 0.9002798795720696, -0.6863473898445493, -0.12533903224378667, -0.46374749724658826, 0.16423000074961522, 0.9052897077477151, 0.7266143231073019, 0.1688867723325406, -0.2920243444306809, -0.44791177449526104, 0.02989510906901188, 0.2767681653321653, 0.3079035893393558, 0.632819082755748, 0.15282062384348466, 0.7839019777228923, -0.651823812601525, -0.12197799708852376, -0.8826453802427524, 0.5689306724774412, 0.7940093643376277, 0.17507768665123954, -0.6735573874645553, 0.05126654010044372, -0.8263237110078284, -0.262189674165938, 0.6354660982527724, -0.2587322388537091, 0.2252059119873833, 0.7827832607862889, 0.12683152580321658, -0.2232236840760978, -0.4655450218673212, 0.10124960903411497, -0.8268818758437689, -0.056534727509543824, -0.27381540572845087, 0.23658093250304704, 0.5353293660156987, 0.11066542493992294, -0.9320162441203333, 0.635074357619556, -0.4175093002916228, -0.7703851287808869, 0.44137998604557266, -0.5421767231817775, -0.8820212756848888, 0.40652629085591724, -0.6489918390700519, -0.9586966826511891, -0.20224149643162562, -0.10150269568081252, -0.4443953216384845, -0.695543844440798, 1.0154840117765342, -0.38873043929399276, -0.9777767030521343, -0.076955109933744, -0.6395201441823098, 0.7459408571735798, 0.8385094497273975, 0.4397997939490221, 0.7737412693605656, 0.0019465715649760627, -0.11276933521175476, -0.6717563345945207, 0.9387048146475298, -0.8707412241643502, 0.3868551011806741, 0.17953087703391266, 0.07879916762457673, 0.6332342367845072, -0.017447203881062304, -0.23969266397470215, -0.16116873324673214, 0.7086976104826871, -0.1369593212640206, 0.7429259586200068, 0.7293727561502483, 0.7441298058185408, 0.011989368106339045, 0.596844385905841, -0.7632751381089252, 0.2700862775096294, -0.37266872179969196, -8.290022799405195E-4, -0.7498787685883593, -0.3809327087050326, -0.4032716454423219, -0.8585189983069796, 0.3725584436531167, -0.17610650767198424, -0.14358861235906029, 0.7560890394090619, 0.342601675176634, 1.0115589060417525, -0.38212566538712195, 1.029307195025605, -0.3547622146268752, 0.7849179158205515, 0.16172378048384692, 0.24048338258245971, 0.7885783821750776, -0.23597622779616087, 0.4985624881293024, 1.0546914866683879, -0.427046284534819, 0.8200604860391151, -0.3119805405722003, 0.8478835291040698, -0.2145603082614147, 0.2516708595224417, 0.6189995034157261, 0.8871852309335978, 0.28575306330182976, 0.09583291970880996, 0.9653152770658122, 0.9856008976440883, 0.5359886936212236, -0.8147967523487145, 0.9228880050193375, -0.6162280214194462, 0.5750915197259542, 0.07651165617747646, 0.04083990646666739, -0.7163890340543014, -0.3356902461342515, -0.6156677140153894, -0.3111764577265807, 0.9124684193395697, 0.32461872230670563, 0.1594143824935228, -0.28050644818897136, -0.4555295996311861, -0.42967232166466074, -0.772716346783438, -0.42924785011165306, 0.8790214776030622, 0.38904143510069006},
{0.8953203802901577, -0.7990242514999557, -0.351431379505342, -0.7520541674319852, 0.7113261076008865, -0.6229676133644307, 0.071936637920335, 0.9149606716062766, 0.5598802578459914, -0.04569974919051841, 0.37768940795867617, 0.9952849279349281, -0.8098539713402054, -0.5137313842644204, 0.8008264058039225, 0.5399373169874332, 0.8824457248076358, 0.07418913149718583, -0.43712773658402826, 0.2653625598930622, 0.34360239145060206, 1.0145170102379732, -0.7793512684961861, -0.5466114319738554, -0.6041938609919112, 0.12331878336790543, -0.2219855486407986, 0.7262014292154217, -0.8477045414012299, -0.10589955792372473, -0.7249892239815338, -0.7233086598278383, 0.17541533876493243, -0.4996766864063502, -0.04137654853160561, 0.8960238976085374, 1.0333791284423004, -0.29256252312101344, 0.5564028652664754, 0.8687968497935153, -0.1468667195485381, -0.6773168293873679, 0.23459727710190978, -0.7859354830183126, 0.9678772128028573, 0.9324530439816603, -0.26741764316172245, -0.2192075010466367, -0.8932108512421554, 0.5131922039971555, 0.328276551475705, -0.7623727766841715, -0.009965637580292305, -0.6518933529666, -0.7280481237883237, 0.09812885497354523, 0.8643188273055371, 0.9877111075325934, -0.583398176013966, 0.7264677822935514, -0.6106944781978144, 0.7982958268325191, 0.02844233099671213, -0.21415606697316933, 0.18552262070817457, -0.16904964991696583, -0.5168485327844319, 1.0982171066396644, -0.5602693167705748, -0.2650412132237401, 0.42724089608477533, -0.3089271554060986, 0.11604618732871286, 0.7541078092674832, -0.08007247405783859, -0.029205425721305585, -0.29645918708465224, -0.6285700271578153, -0.6532429283213488, 0.7999026588552779, -0.44275525796413634, 0.5929194220607606, -0.2992216519185484, -0.8727286439892862, -0.5084306952469587, -0.9235213041125772, -0.16914140743379324, 0.09035858342569143, 0.16490710602488604, 0.9596153853407082, 1.0117390624650713, 0.2540074798968357, -0.9305879239950683, 0.1909822153231359, -0.09991122352249723, 0.8218031068992158, 0.6469038618787616, 0.0787393272499162, 0.8727904886399463, 0.6187463244606222, 0.3006339465509575, -0.11252739206321884, -0.7310119582879152, 0.18919110222050767, 1.069068332232142, -0.8219934835312577, 0.6642219925772724, 0.4954678073189573, 0.6239858266460252, -0.5346278412365655, 0.5560820355970946, 0.990904176818585, 0.720691180928342, 0.36928169983221315, -0.2817469779056445, 0.3245479019118649, 0.5060559658896603, 1.0804591299824515, 0.7027230373841362, -0.18237405123448996, -0.86273854754065, 0.8567595612488265, 1.0110384576107747, 0.7082459140195988, 1.0857728252293197, 0.6634545211734633, -0.6955919871437096, -0.06980712483708848, 0.5516446250463951, 0.5692367729460738, 1.006733850761796, -0.3979317178367021, 0.0018434194786342778, -0.40470580219071006, 0.770580288258068, -0.27207241342805655, -0.6683017774837298, 0.7892308145286113, 0.4887272106446636, -0.828477746482682, -0.7192174601887675, 0.6932576708111982, -0.5889595584443001, -0.6176337357493845, 0.7544741174461149, -0.5982375499740202, -0.2679380104415069, -0.4218852580341519, 0.5383573702199052, -0.8061272196707023, -0.47092680620825533, -0.442667946577343, -0.8856982307335992, -0.3994598819140704, -0.28438221032332633, 0.8725000356917003, 0.3334860589297146, -0.05870632772180841, 0.6583671937781842, -0.5392208821623998, -0.5399599009004871, 1.0716760102888, -0.2814671183950198, -0.06396614581705312, -0.026839155181153002, -0.21463969789488993, -0.4021304409521388, 1.0084253561150036, -0.5561739470883821, 0.35285653566676123, -0.13104589943439796, 0.11806932098649355, 0.6485354891738186, 0.6285464660290089, -0.4087400808481651, -0.06001164539183015, 0.21152659102007063, -0.42256656032127266, -0.8100288456276504, -0.47732589544842724, -0.5984754756632931, -0.21650506925795676, 0.9774769218448991, 0.5398281267185333, 0.5592905521358746, -0.3959721910998613, 0.25734551252939725, 0.727084877140706, -0.2205816518236769, 0.3377651486237363, 0.022227617345866445, 0.9766882396551994, 0.6495306577722358, -0.39789594380757026, -0.00631849902350255, -0.8249055811507082, -0.4735883807433619, 0.08603668786612836, 0.25329620026145805, -0.8014724784496293, 0.5127263986281612, 0.03275276574802546, -0.8384721578284295, -0.3289849597738804, 0.41785939041387377, -0.3159480813995668, 0.03850515125038924, -0.7918090268237489, 0.6439973492479133, 0.4876305055810332, 0.5240369492319402, 0.2192335787257406, -0.762144787539368, 0.42543065391314805, 0.29449342111088506, 0.8694108689792235, 0.9593627237415204, 0.21931840872745248, -0.5111589092137574, 0.6189773013546827, 1.0050996837690045, 0.3304904326304925, 0.4200820988798418, -0.04278434522279648, 0.25263158358327475},
{0.7188975996353908, 0.14632238435202358, 0.6773154839252361, 0.776956111937927, 0.8742721979762597, -0.4418496197122593, 0.7674119204123399, -0.37160183805049024, -0.35504106880229724, -0.29550574161374327, -0.1365435322028192, -0.7794493215097992, -0.20663476728998031, 0.784724912540929, 0.5187180320476638, 0.6625994065509722, -0.19119754701025593, -0.7517239357012244, -0.5078013893750668, 0.09908497166055162, 0.6707944276017511, -0.5939196808833882, -0.12583173708381243, 0.08436430818668467, 0.10187697276262585, -0.12815433789149216, 0.46063879930746376, -0.4447024230876892, 0.525149360734335, 0.46335502241013027, -0.09539834733995066, -0.3546649752846313, -0.5464000797199864, 0.6227429191884777, -0.35797186414310483, -0.38361324296557814, -0.49005782378566437, 0.6697286447958183, -0.3668745827959341, -0.14673628796726512, -0.7593350938358271, 0.18626775613956364, -0.7112366472357625, 0.6849847575169351, 0.30371376726957466, 0.07015107490347294, 0.8934984617261624, -0.12375794782859818, -0.6824139573667535, -0.8535889963987593, 0.237377161420434, -0.4525935322557827, 0.2780707522307374, -0.33649562901790186, 0.7629300818223198, 0.22012272188881113, -0.5665612126448274, -0.3439256121975409, -0.1052260149385275, 0.7167632268169637, -0.7918105881500236, -0.6608353576611705, -0.5566616009971836, 0.44314160430306615, 0.09066975026085658, -0.3009747440370472, 0.46334218550669193, 0.03930529590071758, -0.8646506826921769, 0.5755629132984447, 0.24198143901967625, 0.3574127469325437, -0.9686201099260643, 0.6462553407130048, 0.5897615608775284, -0.3906048735754538, -0.6670988815194432, 0.4068151605742728, -0.0956615667951721, 0.7539335932472636, 0.3484645433428882, -0.004860457663739333, 0.36803638804349426, 0.17680275591388428, 0.6461379510244641, 0.7206405250997319, 0.25786680138867546, 0.6524411427058032, -0.14671432892040495, -0.550925328301514, 0.7401884198067388, 0.2152876924855212, -0.12197969132154123, 1.0202328307765214, -0.44412327231186755, -0.8677039724982417, -0.7207187228634432, 0.34863006987469325, 0.4945487498638146, -0.06386860374157184, -0.23368791181467577, 0.3785259513371885, -0.6088485997084649, 0.011942467740287425, -0.2521051714494164, -0.5280012502391568, -0.7142994024751584, -0.8271980162767975, 0.5317534765242625, 0.7554582740248567, -0.5756126768835113, 0.3382436115589614, 0.6228008507316393, -0.6433717332578216, -0.17590436349162528, -0.6866666803730087, -0.01802411124959012, 0.5655456406622156, 0.016309318198434897, 0.33300159742131397, 0.6991780190544149, -0.5523673429040751, -0.5362273725206615, -0.5047091083989518, 0.5030981474611402, 0.9797990636601064, -0.3028766222120786, 0.170598047352645, -0.08480543473864204, -0.15545970059119732, -0.6432040539083334, 0.39464197150712926, 0.5305520241620898, 0.2025653627725083, 0.018948803654374218, -0.3718489873684836, -0.047610628628045173, -0.8310065855617963, 0.8296288297566984, -0.8652413409868196, 0.13213743307230846, 0.9785945938065788, 0.054532782032870084, 0.2857017529872599, -0.7230054568699829, -0.8294270574842938, 0.634138496861251, 0.46617669645522486, 0.7286380146414142, -0.4732149173027889, -0.389237355516132, -0.0851251240144675, 0.5533156627653962, -0.5527171791156829, 0.4106695297047048, 0.25895696696385617, 0.9620489324621899, 0.25043550066117953, 0.3342231410172332, -0.046516934495814566, -0.5039378996102638, -0.4432633128543396, -0.002084941712444185, 0.5159999389485458, -0.5249837871687311, 0.7400147693823892, 0.07528534136506315, -0.7331835476263376, 0.6906246574723321, 0.06197631423086431, 0.5355310132811336, 1.011414570004772, -0.30475062303719, 0.5569007011525793, -0.021859294269727856, 0.959595353156349, -0.23969870334528467, 0.9137612621283054, 1.0830420605111561, 0.5978956851130908, -0.25465381344406046, 0.09134660341344288, 0.5773939580923015, 0.28237937936761126, 0.8392422862792416, 0.2766500262797471, 0.6090381164682019, 0.09982778274625949, -0.1142272463948959, 0.18750910504117257, -0.16635568396611058, -0.7540785659807628, 0.6000394613929089, 0.10328546013087915, -0.2461253187556603, 0.6799800224244374, 0.613827831923223, 0.8382754783140028, -0.8795774458472152, -0.6433849613510806, 0.04635378627522877, 0.5702726151396602, -0.8532444723270972, -0.2403138678868231, 0.8731258116840902, -0.4528122652071212, -0.6718192293492322, 0.46881558624051284, 0.5646177444506274, -0.4697133129027968, -0.4929683190632104, -0.4262453290988454, -0.16146527374779557, -0.2169501448474376, -0.021766870244464855, 0.1862567549068524, -0.5087640093669487, -0.639655510151519, -0.039671751062485, -0.025710278360803095, -0.4450159872299341, -0.7525479912944638, -0.35887430407905496, -0.7152864810964649, 0.10477406819553878},
{0.9583333835596688, -0.4403125732372585, 0.43851332626626965, -0.597411593580795, 0.5107792880097926, 0.6622604884082072, 0.5491767308030172, 0.7893178151452319, 0.6289856276934808, 0.3696504027564527, 0.754320686841683, -0.42272702532374035, -0.7797582754283631, -0.6567465765102628, -0.34499403458647304, 0.03418581013542466, 0.6252142975891427, -0.07143431681885604, 0.04073138165811296, 0.28604145817396015, 0.6792678652351954, -0.8841601728289941, 0.6199049851832451, 0.233600421292787, -0.8000593600770805, 0.9858313413970137, -0.035150333919014676, 0.007285096330133897, -0.7683952900427666, 0.9681154357242588, 0.2936311405127252, -0.45879006714627557, 0.10734596748778559, -0.04782062162577027, -0.468448693088779, 0.15374274388923068, 0.9769946698818193, -0.5195030210627093, 0.6747432769525771, 0.0919130589891418, 0.5122761314977785, 0.8023388134608294, -0.13626136745759324, 0.23297773974370845, -0.34053991217740837, 0.7533823524892513, 0.8130471514902841, -0.5714541769606499, -0.3698377455477839, 0.25251630736226116, -0.4062632873500142, 0.19120727763166484, -0.74668847059001, 0.12820265349147428, 0.10030239642954508, 1.0122426731299226, -0.4761543225376599, -0.7161054275396834, 0.9046032032673684, 0.9354697928091759, -0.2909211701173777, 0.06682798456157743, -0.3378641994937898, 0.037844648237394536, 1.0124948440016541, -0.033786844855002676, 0.35645905080127904, 0.5915636820860148, 0.8164628414608591, 0.6798841058039422, 0.7065582275431486, -0.1378022029296822, -0.7296576435343354, -0.9002217040958262, 0.381967693146708, 0.36722113602544404, -0.6634955391102884, 0.012314579923506172, -0.9170111375524991, 0.7166100136007706, -0.8385706277428405, -0.6132237507783849, -0.11055798810713814, -0.5571951489858367, 0.12190751011453536, 0.4960575746982224, -0.7877991591732486, 0.28058068377899864, -0.474800878921969, -0.4020730600794045, 0.03509259015570385, 0.39589760225092985, -0.04159959276029016, 0.39327103513744943, -0.051544538973374354, 0.9042107882619626, 0.8626614312556041, -0.33153879920631585, -0.257889771096348, 0.44682368298968883, 0.8673702533090486, 0.4860956647334822, -0.8683501448338852, -0.2840021891912423, -0.82719995093185, 0.3885546370574337, -0.9261989446222959, -0.550118039932398, 1.0406886472840666, -0.18794473050144245, -0.3436341164812187, -0.7247420111290476, -0.36746350272447903, -0.35989932861535345, 0.7176070015126665, -0.25589635250964626, -0.5132913064137429, -0.5115693311923198, 0.8486112632291636, 0.4253998505044685, -0.19793910081886468, -0.8055586307735138, -0.26667742712985215, 0.10164299810515075, -0.6303477042550515, -0.5075862121188837, -0.012005974365670797, 0.6903573507681507, 0.7958542282825374, 0.2773868584840455, -0.22741043302530584, -0.7783047935834924, 0.11855030837448703, 0.1278273491513487, -0.9582440842432626, 0.15472642295993588, 0.07849618576595417, 0.6290019337802227, 0.6648169601994959, 0.4390520585595962, 0.28058435531160253, 0.8136439424939186, -0.2214859916946343, 0.6007360499608569, 0.3466570933373671, -0.2979712100658531, 0.9694589655510362, -0.06069394239475788, 0.525091176422012, 0.04310740765354294, -0.47184948451422715, 0.9163186456310922, 0.668297644492753, 0.14261652593393107, -0.8423700186115731, 0.863193827637659, -0.24084514029531312, 0.8248840156206453, -0.2017434201085085, -0.8590996711803178, 0.2598645771103011, -0.4957822775389586, 0.035660531660818305, -0.6720705033173635, 0.7706009015525208, -0.24906751259537163, -0.4141501156588761, 1.0804466442229486, -0.5109518044864328, 0.17485283581143102, 1.0182439656553761, -0.848330929557384, 0.40735055076730836, 0.20464574367628757, -0.23318020845876092, -0.5827506199385557, -0.7792999891484312, -0.26415106356291324, 0.9542846091724566, 0.3182800166408488, -0.07707885640547099, -0.36047302210209664, -0.8764465826597982, -0.8611778244882154, 0.8063916373298222, 0.9513301488776633, 0.742832158116989, -0.7923898223306954, -0.5522844456291427, 0.5148057265683337, 0.7570933466485658, -0.6326058757214866, -0.8337480850354777, 0.5532069029681403, -0.6271923054043932, 0.7957800623561826, -0.8954562470918341, 0.8020086900237005, -0.6702269086241252, 0.7169537019264184, 0.26060464501640773, 0.8945108330735208, 0.09750912354195726, -0.5143380375158267, -0.04920644605798794, -0.2778361679762671, -0.8275050741540337, -0.9238490556410891, 0.475400301043581, 1.0502448887562412, 0.8202647036151879, 0.9225596553438221, -0.10233230077674889, 0.24033754219191464, 0.9476799657224058, 0.1169937327847176, 0.22337017404037915, 0.3537743040928379, 0.6350282563985268, -0.6952135656150453, -0.16084811893179699, 0.19533804817316675, -0.5946290050890235, 0.3620104875949305, 0.07644418361241875},
{-2.7761873749346595, -2.590424179255891, -2.4913816705187037, -1.9504653030333132, -2.290264759419599, -1.8949323964944038, -0.030908738259252153, -3.667540311351198, -3.853057873508535, -3.102157149101174, -2.755941403797915, -2.7603942675380275, -2.386183763952653, -2.5612310427118468, -15.061737951248352, -7.0377921348619354, -2.975065301608928, -2.752625536631813, -2.2493810521088067, -2.2394969798965376, -0.8354381395247094, -2.9749364110935828, -2.6312074704519364, -2.222600295732185, -2.134967144406922, -1.8150619763791158, -1.519024491221261, -1.3018667446634669, -15.040424309300155, -5.813856090785478, -15.011385813417494, -14.826798233138124, -14.612881405208352, -14.877099046754129, -15.014220934370364, -11.822596902578509, -6.448864871306576, -6.060992452404181, -4.416281714770766, -3.120363756104484, -0.2680083700639238, -0.345624909549197, 0.16532446040757767, -8.636964218968563, -5.1121377922548765, -2.797640911438202, -0.1179157391419507, 0.6088949493252473, 0.03140275632688287, 0.8324877398570476, -15.17771249641998, -15.092483773986046, -5.0558020223949685, -5.252887788785245, -0.615368142005104, -0.07814423437024066, 0.4868389485016802, -14.743118991802382, -14.776642394625833, -14.539049628378553, -14.524921627879262, -14.593160682423699, -0.46461768342974513, 0.4813396414918774, -3.301248376343602, -3.7004025627092663, -3.508331190223874, -3.710524839293905, -14.823977268699384, -14.730448697804842, -4.450066818446638, -8.424390856706307, -0.015228612428849209, -3.599553918527586, -2.568871730839746, -2.8747248331651654, -2.0539471772230984, -1.6985310728179204, -0.7181156714679383, 0.41089659688685054, -14.788508818406957, -14.81795979381781, -12.702295603558174, -3.534595278344652, -3.650802370792287, -2.688374389820532, -0.45404654664328087, -7.530306680764498, -7.1530064790273, -2.775578724709028, -2.500739525902648, -2.1265597496489534, -1.7049838819196905, -1.4741150221479749, -3.6092846929933056, -3.8560634145302712, -2.964713079486088, -2.35557181403855, -1.633219871020176, -1.0449696824257477, -0.5005388060840156, -3.5531335643508553, -2.4588249617148206, -2.4075220814497236, -1.9982068481044664, -1.3351840908308923, 0.11323213055299311, 0.27253935765336373, -3.7342537212104427, -2.375319366033304, -2.7023247151448726, -2.5175439798815087, -1.0294109288180382, -0.37551123327673397, 0.6307853774849316, -14.681084524741683, -14.383301477210894, -14.406638562694106, -14.379955925931966, -3.585662810888544, 0.6869053688861693, 0.5005929161155509, -15.048425841801881, -15.049806963606825, -15.127965265761903, -3.204203704325884, -1.6882768031815982, -0.04558647155352253, 0.8738750042662806, -7.216179187327104, -4.031814558778171, -2.090197954370107, -1.065817870851058, 0.0059082912701680715, -0.11882703861885277, 0.227160852824994, -7.654492419124003, -7.551311546908672, -7.112145623098451, -7.226946030962322, -1.9997590447874385, 0.6520178381797845, 0.5380182851808997, -14.837000364389967, -14.841705356942036, -14.86402261477919, -14.847295559843397, -14.854845150592459, -1.1003439912799864, -0.8461592709197896, -10.343249535273559, -10.309270977642406, -4.195566555741969, -4.125431708104768, -1.6299292856625998, -0.4997186227907605, -0.15440053196777814, -4.11371978852626, -14.958053147411658, -6.664087971094401, -15.05201633977512, -14.856856182904105, -14.844684528232262, -14.88371631364154, -12.932523839762288, -3.062654003704926, -2.6584401965702256, -2.4054773502276707, -2.374270391881049, -2.0150488384143825, -2.0217506409641874, -0.45317876251150435, -5.542096766047898, -5.034057287415415, -2.5972364403043153, -3.017961048752429, -2.492329351557703, -2.562988543913897, -2.4646627377659582, -3.513701888889694, -3.813125668809205, -3.2976475851444444, -2.0341298269166974, -1.6711946153116237, -0.6408547721602194, -0.24491821653417617, -14.978741207150131, -7.093223818367667, -3.503648407265094, -2.641578566231591, -2.315117693429982, -1.8550198635697657, -0.6144638124649445, -14.884965460467654, -14.893874427061618, -0.12819160281644815, -1.5367615052274184, -14.88146627716313, -14.887612547047327, -2.1787180627855927, -2.377907133573124, -14.791975227456772, -14.843924957131238, -1.740770794652653, -1.2296186003974123, -14.990835683539173, -14.986167649178805, -2.9219843582841256, -6.521573172170472, -14.845885626361692, -14.869259773130896, -1.0587515875201996, -12.879666060078884, -14.72774664185651, -15.0186751201103, -15.622605300089171, -1.8419993239390648, -14.83542292694081, -14.879911221316899, -2.5944284377318985, -1.8457318737906065, -14.816145617934325, -14.873764778540341, -2.0569450455786176, 0.8372379806969359},
{-3.0211486158761587, -2.975023382291403, -2.8508329377868504, -2.8614392432009397, -2.8896965657346594, -2.529617312472995, -2.0031784240891053, -3.2410710891058043, -3.1180245094962085, -3.1292371697960455, -3.233726422624961, -3.122617517414177, -3.059752479590879, -2.996763474860322, -3.328138969091807, -3.651855346992743, -3.173013547000941, -3.0783311356002345, -2.9173728361821465, -2.9186651573798517, -1.4326154842681755, -3.198837644113781, -3.2271336169151223, -3.1809932308930224, -3.3833968472276483, -3.2527332344976534, -2.613974847262871, -2.1648299614783766, -3.2423179848704415, -3.31582667234533, -3.335991674266606, -3.631968908937974, -3.6526561817145753, -3.3923388897478572, -3.450577647009732, -3.4388905645172625, -3.541065833999683, -3.263951764058967, -3.1784412684863477, -2.953449007879393, -1.7301056068196135, -0.7397146587652692, 0.9582390575124746, -3.558895342432112, -3.2305284588601193, -3.0585340740737625, -1.1917643443603718, -1.1647163398099474, -0.33263578641463987, 0.8628292364649925, -3.3904049426976233, -3.309010175826302, -3.2696408296301085, -3.1665838742705357, -1.0023587532828924, -0.7724241270987902, 0.20038648259394098, -3.2941932288609106, -3.273211169884729, -3.3751263421867828, -3.380083841661195, -3.196778918700296, -2.08959486134225, -0.4598784930649268, -3.24604879459608, -3.267334268117146, -3.3043191659071955, -3.136905214206942, -3.383150562001024, -3.2219433491437943, -3.2520597471465518, -3.7074510876483693, -0.4973804580694168, -3.269017269654368, -3.044851113812582, -2.632755487610199, -2.637243224773455, -1.4994324867999294, -1.0540366444213767, -0.375222032674125, -3.319507645734428, -3.3447012939729492, -3.5952685721241577, -3.521989704373175, -3.1141694929335184, -3.001031867590371, 0.624459990589356, -3.3801946282998605, -3.3910914260587823, -3.2162672223191686, -3.201818181047827, -3.0971579632007127, -1.2327435898149555, -0.3471350291507117, -3.402414929572804, -3.168575383635374, -3.358026738509255, -2.9920700000644973, -2.390532267211574, -1.488556816415426, -1.5882312139995287, -3.215498215464187, -3.1425692017119, -2.7815769000311397, -2.5328813845660645, -1.1717209989712252, 0.588725180702883, -0.21178422451202586, -3.1712802010216117, -3.193201662199925, -3.2185895303826717, -3.1629923680866634, 0.26338195497363887, 0.025724458489648504, 0.8685749622918839, -3.360916349950155, -3.2573372245172396, -3.318047848694408, -3.363698400602032, -3.164834618430162, 0.36368354083689247, 0.8101416973074201, -3.3609240367112667, -3.299456083657075, -3.2621759448309784, -3.1454064197827374, -2.694615212317988, -0.8771118639536807, 0.2667929085950962, -3.5425521428009255, -3.238469517247239, -2.618132431449632, -2.384086000519163, 0.7013401516785278, -0.29092131041709374, -0.6838378554169824, -3.7392617960070162, -3.499358617394065, -3.106396012586097, -3.2619940687881757, -0.3562879388993461, -0.2628978345420059, 0.0558479402033885, -3.371476704465806, -3.3800245148972667, -3.2819746793434876, -3.3176699264009155, -3.2084020156081765, -1.4881849095184732, 0.13943848152621227, -3.3894147844365663, -3.3739675473636086, -3.3069088057219944, -3.238123868711748, -1.7119014229886027, -0.4623545680819423, 0.8541671190417235, -3.3122858419657164, -3.4913080786263198, -3.28599953932593, -3.401076421634674, -3.4500282914468414, -3.265119162350974, -3.529283762335175, -3.585626243241445, -2.9568721751454214, -2.814918720597132, -2.7883324013958006, -2.8516117824030935, -2.449613749194189, -2.571931522635279, -2.195602561820831, -3.410055327238002, -3.3908626977301886, -3.0672295283607474, -3.0933824716447376, -3.0201824928005503, -2.9981640604520994, -2.9534962666432856, -3.2158932678743266, -3.343620539168535, -3.151028132812004, -3.1365533073243275, -2.5370695351507617, -2.07096843519429, -0.760275270556917, -3.2069822642241355, -3.809735058166566, -3.1759100340204, -3.153142733277593, -3.1775282783150423, -2.5636091707805893, -2.357293199980423, -3.2640630933022634, -3.4180250186583434, -0.09223007785343305, -2.6331287077781917, -3.323202722187391, -3.2688487114480256, 0.14504800916140326, -3.120479659985231, -3.262282785475506, -3.279815457112052, -3.2152239042263355, -3.1219546995166216, -3.368550242023413, -3.3030173148050723, -2.901379918221637, -3.7319099280859214, -3.3055340419462995, -3.2815730704074424, -3.1108329820276883, -3.2211241552668817, -3.261741233497313, -3.321993387216924, -3.2450855250322244, -3.251736587343256, -3.36697853675702, -3.32811599075051, -3.295981501754047, -2.873522302695194, -3.2846162590098635, -3.428659845743475, -2.7530732547095855, 0.2174113786696034},
{-0.4344271867478013, -0.19871920819578373, 0.19359814442089396, -0.11980736496093283, -0.4785363276039689, 0.05629244861293871, -0.6376617470990918, -0.1093763587960983, 0.08133390929361535, -0.03256388656827645, -0.5244268554798359, 0.47170047204814625, 0.3296409979552939, 0.7187294606303924, -3.325276516812326, -1.4058835772655112, -0.5644848440841338, -0.10782293299385151, -0.07499020732481695, -0.30822853620123475, 0.3905327216854708, -0.6452239388546089, -0.07479728080471693, -0.5547329567857933, -0.26130097296052934, -0.24779750673611542, 0.16447080572602352, 0.26107093613584237, -3.43863879686426, -1.107490363883496, -2.79608687036744, -3.5121132195578126, -4.267007182178678, -3.5600922650751694, -3.596570869235271, -3.887408967182506, -1.235274506624056, -1.261868794193494, -1.7454790474709134, 0.4164158341398317, -0.6177652508759968, 0.5592083079796192, -0.9914727010262591, -1.5143578150134687, -0.9813540159591188, -0.8312804975453436, -0.8803100120276959, -0.9879692573941066, 0.8446847357042986, -0.5727577170945615, -2.341857639695108, -2.4245291837967926, -0.6295143877760913, -0.9077865168067144, 0.7311601042152225, 0.7200955001257585, -0.7450283909227371, -3.7460915341781327, -3.7694683759941396, -3.674162647933876, -3.580049055193605, -3.769529491926914, 0.013535277294954129, -0.18256281137860805, -0.8329339197080555, -0.9305400803931565, -0.8345875057574406, -0.5834856823985419, -2.6292686989140126, -3.7068875460273847, -0.4913095762709507, -1.4602315667920327, 0.9777759003417787, -0.035520671952755586, -0.15928850425309346, -0.8586352095513915, -0.23373775635067978, -0.28774437925179147, 0.6689718476826565, -0.5943016411368284, -2.838251222067528, -2.7320070005450576, -2.8888040214313264, -0.7555460603098624, 0.17410335284735984, -0.4430776267995481, 0.012815511619109755, -2.142214804320002, -1.9177959997202458, 0.1704007009589426, 0.2246268695515599, -0.12643065222677985, -0.8157642759483271, -0.08199863667123564, 0.14917603179693267, -0.028052450817058146, 0.27258761813549076, 0.3275461597530429, -0.2188897049967591, 0.002743239346388094, -0.1332801522517363, -0.724210313892092, 0.3042217311888362, -0.388293401969048, 0.5788791745050296, 0.36326065825485254, 0.654759247604064, 0.7897514577810257, 0.10545866206769333, 0.3027301205545133, -0.36902923040011737, -0.08195662386489712, -0.39329569900386674, -0.5333368108751835, -0.388602433180111, -3.477350101128752, -3.8113022833409973, -4.1336546048006895, -4.04005518853344, 0.4491104590193859, -0.13174974710548007, 0.7681103418213787, -2.7586568485747867, -2.570832494161421, -2.6124633842249416, -1.0120075455254922, 0.6979694503879568, 0.7429138770644897, -0.5002670116197414, -1.4717687429972874, -1.1372653319621935, -0.6178917519947096, -0.6464545411663092, -0.8473383545355306, 0.483351391133005, 0.39719724255942346, -2.2200527358459934, -1.9343250591866397, -1.2591454230215535, -1.2710721065945092, 0.48257127095091207, 0.413958639215457, 0.7021540218104495, -2.842900667587421, -2.8593267596537024, -2.8785208746084625, -2.5909830847542694, -2.665705839464989, -0.684515566592569, 0.4856925448462186, -1.9068259388611215, -2.085326952884429, -1.0501762055572255, -1.179371229697462, 0.17821519355460202, 0.3474885348399127, -0.9876341110038782, -1.2279062442862536, -2.982083922541023, -2.3606000729480647, -3.036080832954529, -3.4160171130376105, -3.5355939629984197, -2.8795087817155802, -3.686137834447757, -0.047151437281678, 0.20229223744926442, 0.2647134070916235, 0.03682661545424946, -0.3366205859147919, -0.33201700700516196, -0.8574921366103023, 0.28344523554606793, -0.5085244640736879, -0.22280888065638407, -0.25245531188039944, 0.4898553172680004, -0.049631536063898515, -0.8837126100124887, -0.011638222747383393, 0.5196892843451307, -0.4776092695962436, 0.7531940640485255, 0.13320457988250198, -0.6766541740835763, 0.21778689629919984, -3.019615470672469, -2.2014936035266777, -0.7100165674142569, -0.052904557527089675, -0.6068812809054549, -0.9235750287238551, -0.9526440882254568, -3.5845791125670874, -3.577828192119432, -0.28781208875413017, 0.6238805814587383, -3.3527523434773845, -3.4677770776696693, -0.12370017148729025, -0.27613052895741047, -3.3981833207716634, -3.399800543238859, -0.37564552695319536, -1.047046797581771, -3.5799125035541692, -2.8845176342123904, -0.4859637478476856, -1.5404089093708626, -3.0201046485542293, -3.627285696380874, -0.28483001554229137, -2.293332597920028, -3.39218497720831, -2.729000327927461, -0.3487060784057097, 0.9278881407355081, -3.510474431379627, -3.6521169409421765, 0.8327459681827257, -0.1666217832875068, -3.675114743158944, -3.5461302381160222, 0.23144431206419938, 0.2769558621588419},
{0.8258749447662179, -0.03505922867757781, 0.8757570393057883, -0.22289454790221558, 0.8056544207666182, 0.1151014310845241, 0.7214813582324503, 0.3258231356513999, -0.9005649175964997, -0.3863148626223561, -0.05070490338619127, -0.34378236467127243, 0.9046688930870318, 0.11396918488472481, 0.11823925263164017, -0.7870907490788915, 0.032110960782634035, -0.21947656025577952, 0.20955995357905652, 0.21350592078517708, 0.6906229237451208, 0.7991240066955348, 0.5581658153523654, -0.6197215016256697, -0.9098143366076508, -0.18071974707098967, -0.7775677573085918, -0.5122768320392053, -0.34724979181009485, 0.5087472027586335, -0.23281927333701533, -0.46106596174953174, 0.06688053845446584, -0.04922707093997427, 0.15900372788376227, -0.26607763987356703, 0.12120151692114087, 0.4917510583532547, -0.6532043207350132, 1.0283752699726458, 0.9975807973408531, 0.20098139131648737, 0.16358757229521068, 0.6167144187420793, 0.26312634405520147, 0.6740633330759315, -0.11427307945879002, -0.39201634736311186, 0.014130641669970705, -0.6007587396867511, -0.039605361306206975, 0.2825739899865835, 0.56031180886372, 0.21464740457719855, 0.8849911077381564, 0.8019642263365472, -0.8909665393150434, -0.43104104453240355, 0.6172831357785272, 0.9495387282387507, 0.0943675879505152, -0.6870512361946615, 0.6537728692458948, -0.7368480653100723, 0.827480615081241, 0.9052418333555342, 0.26983266610045353, -0.7723465131975896, 0.04138374320096365, -0.8145560642784467, -0.7719867440122378, -0.26526016437528643, 0.8061096933334344, 1.0690496745030582, 0.3099273637311519, -0.9154312618127868, -0.3858467104869607, -0.6883212227591846, -0.21830149296609375, -0.49990336861241697, 0.4054337255898098, -0.10607719988206694, 0.5730322029310341, -0.9137164277543403, -0.44245968620996723, 0.9734147585025056, 0.05363205541813975, 0.19695175021673772, 0.9525486774647248, 0.9845567446080783, -0.8771511901855842, 0.032597138024136496, 0.023254654280863638, -0.32502355535218264, 0.4212843378593909, -0.032713486086221724, 0.24242543708750958, 0.6312787079750523, -0.22375134978992312, 0.0026959953522797896, 0.048902200674365744, -0.5665439815497502, -0.19162354479420393, 0.4844607168358341, 0.29479457694012456, -0.12560732506324632, -0.3180057349144446, 0.3705118961029354, 0.7682351534372851, 0.6379850838961185, 0.39919555024301945, 0.7339375526705002, 0.38901013129049367, -0.2731206816989541, -0.5297347452429217, -0.004676268959641802, -0.8992227663086524, -0.7758395353977835, -0.7936674987690961, -0.40998746013208276, -0.7825305267375652, 0.24334217815116757, 0.30839376053068984, 0.12051110318715876, 0.35846026511972856, -0.8211326336976353, -0.3533931422425855, 0.29436484207954905, 0.886141147741037, -0.5444175486708063, 0.422171877062762, -0.35451397048294897, -0.6837867288236521, 0.21471365325493846, 0.3516125354797664, -0.09089691890618434, 0.6687029711076086, -0.6147392103898768, 0.15657022188930197, 0.7292770900553298, 0.7611385001143303, -0.38835955129327515, 0.7017177913779999, 0.848248061546731, -0.7451563228966798, 0.041210638685244265, -0.5684712200336369, -0.7541581239444197, -0.08419796708722851, -0.5330358643938358, -0.4439789811731359, 0.30790200170198895, -0.18865576823745264, -0.35434146495039215, -0.48025861214733595, 0.7094126327328838, -0.337297675626965, -0.46931599196083285, -0.3285403544067198, 0.06905126343827482, 0.6580579237920411, -0.5823238727216821, 0.030722701073432748, -0.013425547353750032, -0.6611815067847777, 0.08794027178102208, -0.1298029561226287, 0.7845916954429769, 0.21846507802395942, -0.8698697423459164, -0.0816647788822196, -0.20441118998413066, 0.2903489299773904, -0.36805242935533794, -0.40725166862288975, 0.9670400480374373, -0.2622715718166201, -0.1562903284973554, -0.5265508647113881, -0.7033013350105288, 0.11938308080459639, -0.49689388884636315, 0.6886047999584857, 0.9166108244368649, 0.2513728767495704, -0.675492184060251, 0.7999275189307182, 1.0303556135959397, -0.22445313384374257, -0.6175904439835422, -0.6231949819228235, -0.4165668316861776, 0.5294082894505661, -0.4558613544670046, 0.7757581548288933, 0.7691948018428294, 0.3597520501792781, -0.26309142722358414, -0.8844062631837216, 0.03163844851799599, -0.45018897034946365, 0.5643158413610113, 0.9915936153962899, 0.8590097715832935, 0.9061398280395278, -0.8266541110215803, 0.6542145004576904, 0.5509832907646302, -0.7487291444370862, -0.29929982926982673, -0.16423228991416502, 0.20807383860666182, 0.8106128847637918, 0.43283945652899897, -0.8014114882192441, -0.06469415497610444, 0.1352314189411211, 1.080348159019707, 0.014602826988044009, -0.8663085832813905, -0.024315085508805186, -0.7868739272722556, -0.5030522678669552, -0.939597167879529, 0.28153560255362076},
{0.535928016167056, -0.5782905756407111, -0.3523520202888469, -0.11705187974118052, -0.6195188822684964, 0.1359445943090656, 0.4283856807792567, -0.35083793784383094, -0.16550432026042927, 0.5194821779340091, 0.2864685212406782, 0.750187205118261, -0.47682367316455754, 1.0608518615498763, 0.39080456844370237, 0.6859963734697611, 0.5594155578999623, 0.17007811689854305, 0.021047053710860818, -0.6638369393738204, 0.7842853707255705, -0.08145747167681594, 1.0282878970727463, 0.9809381496705197, 1.0708157154127826, 0.59588229612712, 0.7924142151341899, -0.10653075491680074, 0.816648747311057, 0.6039146349481017, -0.23941067321295686, -0.5252279317371408, 0.6501923778580059, 0.36754033734972885, 0.08569497512959019, -0.6708243294571653, 0.37291539289710063, -0.408169577997653, -0.43947898689133025, 0.23829198599572549, -0.08889454072188976, 0.8916246548539621, 0.11072657320172431, 0.26778713835007656, 0.18808027176196995, -0.1889011151966332, 0.00216250225815125, 0.002443155865524448, -0.27151053930955493, 0.8094383155478027, -0.8920814721335253, 0.17421208280427952, 0.24752302935980072, -0.38771703721469064, 0.6781725248619742, -0.9674095343658062, 0.3442231211222375, 0.062152079491355545, -0.16635513819686562, -0.8300885093437477, -0.5116564332233646, 0.49140215634788004, -0.462415152803722, -0.9483378003623749, -0.5495663053303181, 0.6889072555864411, 0.52576737313541, -0.4407720731296635, -0.8118474574981062, 0.49893832042553415, -0.19204378246271347, 0.891317874719448, 0.4374667167258506, 0.43572990497231523, -0.5243773666217884, 0.9502602518755867, -0.8386957909391954, 0.8113566366920346, -0.11424787415847973, 0.639429194095496, -0.49523579269666906, 0.724156245224358, -0.6042694888842224, 0.627428884943514, -0.19550746647315403, -0.6614310464983687, 0.30922989691373787, 0.8097127254476185, -0.7788641891468375, 0.5553377624969363, -0.4431376140796628, 0.46183281732441017, 0.2426734714655381, 0.6198794031803848, -0.37918458216796536, 0.5472804586896637, 0.7379671565016263, -0.7697712791462016, -0.026539982499727097, 0.991875945532218, -0.01846375057329543, 1.0077709640525359, 0.7531736958441294, 1.0411564618659812, 0.8543234329030285, -0.050719648853456346, -0.8038775620699156, 0.48309234704191323, -0.09657721543815144, 0.5720804302998774, -0.045864458649690736, -0.08327211558297519, -0.7692915612833201, 0.8346282513192588, -0.012668470177921996, -0.7870704693745859, 0.9107332317214186, 1.0062971419396618, 1.024682972634026, 0.31955789404884244, -0.4330255205277104, 0.1848729199398698, 0.3688639862465072, 0.8370148263814355, -0.7881365974801217, 0.9431993505157344, 0.8460372516699984, -0.2018924412144107, -0.7986367235377427, 0.8557079776370032, -0.7251465163599639, -0.1511412625663707, 0.4050327470947822, -0.9269512033702003, 0.24327340897204264, 0.5225587049744091, 0.9355796255367638, 0.898916938711492, 0.7712983227950192, 0.36064093010625314, 0.38334804923135146, 0.1775649096998029, 0.4865031866883127, 0.13099772280635827, -0.4164267543287889, -0.15402897611832633, -0.5110043788473243, 0.07754614417081185, 0.659286301498295, 0.5312741452774099, 0.7049932426922465, -0.18881541340067076, -0.6520010860370421, -0.8597144212260296, 5.932308784408376E-4, -0.6323658908103653, 0.6501122761179485, -0.4633527459178897, -0.4465815738085435, -0.4637801495042351, 0.6785320214463456, -0.6328478019792054, -0.07249518107010189, 1.077899525949039, 0.29217028609070395, 0.27637237176126483, -0.10610633142280773, -0.06584847825896206, -0.841949918640179, 0.8583090393137215, 0.07050472964965424, -0.5809133611170954, -0.8919650081085296, 0.1778269534683021, 0.16168793654311045, 0.33071352278095734, -0.42293285271372466, 0.278368237991179, -0.03891604862576905, 0.4331261215049666, 0.04416687997840762, 0.070625896617101, -0.18899450506983823, 0.2616454785953411, -0.44010441800225664, -0.7827663821409692, 0.5066395384426462, -0.1258083783725028, -0.22662070965112752, -0.18717542878572008, 0.7736646325911309, 0.2015546895842721, -0.7482061351833397, 0.07462433884058424, 0.6722016672843094, -0.10148715196917996, 0.3369475320682382, -0.5615020119109879, 0.45849837879804706, 0.11641038072711384, 0.5770715072132114, 0.49803835374940164, 0.8037168688239124, -0.8282223528445516, 0.9648135149575985, -0.7498826251140918, -0.7540133000944393, 0.3584415828852537, -0.48730120626568535, 1.0242109974208962, 0.7885051211168406, 0.05492878225722766, -0.27661908697588966, -0.6265599962753452, -0.5837229951799028, 0.7285145870182539, -0.5704879514102206, -0.5140029220241271, 1.0239951161641323, 0.9918147277395102, 0.15461080308592967, -0.21663109821141108, 1.0514498124310083, -0.9125562568183821, 0.7644929750374374},
{-0.3439748297948998, -0.45283148957248887, -0.1188720267549976, 0.8323764496969223, -0.756035675415801, 0.865110023576901, 0.6157123700987158, -0.2825041132368306, 0.25704961339110055, -0.2256050372179742, 0.3253987553243098, 0.4996619427871577, -0.0676324787371486, 0.9517748188551393, -0.41960950236168426, -0.5618247334539964, 0.881037751391206, -0.14295387614128957, -0.36009622866506075, -0.3144087067481482, -0.789101673559165, 0.029122425934905896, 0.0904756868726604, 0.9716541639433496, 0.7932372535004671, 0.041787802524712314, 0.40882579761609306, -0.21021852623973836, -0.16457539009925898, 0.9870920801275407, 0.9339688763491326, -0.5025854246216163, 0.8892145509551528, 0.3680180854790187, 0.9545582346488947, 0.500473779852101, -0.6179278452869029, 0.9745517231827212, -0.735905420978191, -0.594716576469894, 0.17597235243957812, 0.9042417771442322, 0.4357656254042349, 0.8292772963577745, -0.8472203268668451, 0.13362136814437026, -0.20866174384983166, 0.48951062273233864, -0.5250236141151495, -0.2591933255268868, -0.6510984661874513, -0.07664828057985837, 0.4727701227474597, 0.5130152709864699, -0.8101333905445661, 0.47236591227400354, 0.15617495016871574, -0.8112618219273753, -0.09586649424303831, -0.008544150002321413, -0.8101062629098805, 0.4913249366726938, -0.9196378496241798, -0.5342629097292942, -0.7832232935997131, 0.4895649029703932, 0.7601661935012689, 0.3066221371086463, -0.28486687218594714, 0.8406634182024932, 0.7292867462403123, 1.0349396359905905, -0.3182217910399019, -0.028376836535488458, 0.43666034050279334, -0.5416879648874007, 0.15766447438181186, 0.819560039377566, -0.9077163053565841, 1.024426554230549, 0.6887418264455996, 0.6470470137990755, 0.04530864477217353, 0.7642045409729633, -0.41350238019027424, 0.10224239811166527, -0.20558267488624543, 0.7585105832038274, 0.9420193875683502, 0.2376168748302563, 0.060025658952734824, -0.3935779241775369, 0.602735394074707, 0.7162902261622631, -0.1444089487981819, -0.6542813157644644, 0.27889948735279163, 0.7920845046839603, -0.197639820063459, -0.5641386464934206, 0.29082213696366294, 0.6666211149616718, -0.5301727117191942, 0.1254518569921482, 0.49430587553474625, 1.0212467815473782, 0.27916989587751834, 0.703070072880542, 0.09033132981779181, 0.36785181665295164, -0.11171290264833833, 0.6451411331896458, -0.47999633853030643, 0.6522986829769434, 0.9675524038783598, -0.7743290621783098, 1.0691331618925597, 0.3446146707042428, -0.3483576799207115, -0.8949037024698635, 0.980811097868615, 0.19031054993902277, 1.0604231805210125, -0.4143901560038885, -0.05270224263847721, 0.41225653149324165, 0.3615575974618745, -0.12734365839625722, -0.03946249705615725, -0.3250831123980728, -0.2176412110045271, 0.40291211551621364, 0.3050574976129259, -0.5347987840151178, -0.5631321704120081, -0.36001578639454546, 0.9833563585781262, 0.5299458507249888, 1.0168424135607244, 0.5079778278164193, -0.6557831886624219, -0.131766869549607, -0.6059504670449458, -0.8997478695091782, -0.7788088325502869, 0.519554729099308, 0.2433647813928724, -0.3056431007593782, -0.015686693707104987, -0.31445722970921547, 0.29649114413412997, 0.699464728422197, 0.9491563159854203, -0.6249814148572707, -0.19130093995711017, -0.2001150654184202, -0.39071216854085766, 0.42503253472907176, -0.047735584266530094, 0.13099892496357124, 0.8748329859010816, 0.2813858751862033, -0.4767527380396566, -0.4738093838230025, 0.2824729696817327, -0.18211315457587612, 0.10076343394258605, 1.0065571582102981, 0.44275609090094464, 0.8149365579949047, -0.42843560169932265, -0.8447525749057683, -0.2242462495287538, -0.4465034596416003, -0.7211827818258204, -0.3429787420883122, -0.8884514014440772, 0.6700036664458141, 0.8000441368014365, -0.4328668130814907, -0.4499553444322991, -0.8183575400781712, -0.6127672157234434, -0.17885917821635014, -0.8745165248678465, 0.9275128074910848, 0.006555852459138482, 0.9801841571631743, -0.3498103752008416, -0.7037993711781341, 1.026401343058623, 0.14877474563940798, 0.5960782117263768, -0.6773923795854331, 0.2399819847302634, 0.984987536175195, 0.026384719228870653, -0.8796612062202719, 0.4305281460415986, -0.6851238784870337, 0.6425627174312445, 0.964346043295022, -0.7054191275695172, -0.16379182640020018, -0.7886514943504056, -0.3308065257400323, 0.41166614320350725, 0.9236369485826227, 0.3596407562481422, 0.6222749700904548, 0.3781021196928021, 0.914777185983615, 0.27150178588997365, -0.6939254867844354, -0.6155085978611702, -0.09705071721897283, 0.4220321885453229, 0.4164237565713788, 0.18970676608194295, 0.02991545803624055, -0.5028405302513252, 0.9566352314443446, -0.6304637347013387, -0.41427410717930313, -0.049709881570336074},
{-0.31579349609513907, 0.9886987446866878, -0.9210626554335252, 0.669704113506944, -0.21078919526180037, 0.48139447170344757, 0.29192329739423306, 0.6421873077427663, -0.47435589457937866, 0.26378452867593083, 0.3427241797398794, 0.6496534744737236, -0.737106174103099, -0.18990804539802406, -0.7490735075644658, -0.6822990756607328, -0.33796639088838026, 0.7591599631749902, -0.8774476924461867, 0.7247684377939059, 0.8130184184978241, 0.7994088813378822, -0.004761582916722548, 0.7659418646913015, 0.2903171927441929, 0.816356898368908, -0.7099877654625969, 0.39964123578094896, 0.9920280311973587, 0.31528485192185046, 0.17600119619711477, 0.4996271392607059, 0.022424417147723013, 0.39302452233306195, 0.39226804736196236, 0.8445608318835648, -0.3441994689199697, 0.7608868166928191, 0.574480570083283, -0.456648746242863, 0.11970388363963445, 0.4322379013465116, -0.058629341211114426, -0.2483150553052267, 0.3118071499553055, 0.9057021558291989, -0.6447725158655256, -0.37435944252609304, 0.5149823496205564, 0.05535786939255827, -0.4555532395959719, -0.029882385599314127, -0.6922857897328768, -0.09030312570387135, -0.46958169187317655, 0.41534915450601034, 0.2370239116757784, -0.6604181673440292, -0.9001520032447335, 0.6059374514552377, -0.4762316323285583, -0.42023354071790664, 0.5360967273733662, 0.6887971557276537, 0.38172202914935716, -0.6811083152970766, -0.6154926482173693, -0.17323308967826764, 0.7077695492630798, 0.05934641540651188, 0.9686638351982927, 0.424813937263242, -0.62009804871151, -0.5825094378193426, -0.8997869522342397, 0.9333360312333473, 0.7926458115970529, 0.6581185067066682, -0.11449248520052525, -0.8140572006852366, -0.1576734743714897, -0.2892901543713147, 1.011925604775015, 0.803003676135419, 0.10484285960575346, -0.8270306424005973, 0.13004857731430144, 0.05391604283903369, -0.6945074454626854, 0.16870685466809335, -0.5891710572873092, -0.09778141597208427, 0.37610981536167304, 0.7899297232201052, 0.24298806789826716, -0.4107024309894529, 0.5953626906284573, -0.49357892366837297, -0.304544535269981, 0.8437454247535683, 0.5090839837131693, -0.06739296178690096, 0.0903981636222178, -0.2614893492165557, -0.30364272184679325, -0.012855968713300104, 0.3339156835173568, 0.09453616093000924, 0.41826992171301786, -0.7154680883305375, -0.8834145876559716, 1.0525317622959043, 0.025191975606048134, 0.8244207672580394, -0.32556735625364874, -0.35676873655810293, 0.24464373855460905, -0.1800672469906304, -0.7725380373071866, 0.5266994514246303, -0.025641818771599306, 0.8814883706091302, -0.0649270751552645, 0.5481849036763963, -0.891297003853751, -0.6467266131897238, -0.6654031466415965, -0.872960931138652, -0.645703204188443, -0.43714012057464463, 0.7681105343134925, -0.4973631546194122, 0.6435061050132658, 0.05651990869993986, 0.8074263163020557, 0.6093404187808946, -0.41969976418690963, -0.687029633225152, -0.5138956149574656, -0.2258534930139366, 0.49898768466228544, 0.25059270510648757, -0.8086879326936884, -0.9007279623880454, -0.746562433726349, 1.0534396721434405, -0.2705083064784735, 0.4969536648084611, 0.39283600787726114, -0.9897498820287476, 0.6452821053562129, 0.1338934997905828, 0.4934246884228181, -0.6105054794176986, 0.4337338372136622, 0.3878729193538075, 0.8629206577403594, 0.5831013227364221, -0.5047149899622172, -0.7811149741368425, -0.4076985327663541, 0.22503154968313063, -0.10821099346862639, -0.3990836665939468, 0.32332580269015027, -0.5473945361918867, 0.9350415924318422, -0.47967251970375674, -0.2353071848101247, -0.5473416437339501, -0.2925309134127628, 0.1935071858044472, 0.616802680965148, -0.7498562781881131, -0.5642129059268471, 0.3043484992589205, 0.29617730839178397, -0.3739394631597733, -0.46665103346278897, -0.06814366549574712, -0.09054504822281625, 0.12679193928566632, -0.3807050495697132, -0.36407902738944153, -0.41359180484898295, 0.49736424257352285, 0.01205031591390444, -0.8585478487670245, -0.02671971832867947, 0.8672412661260767, 0.5276919228250178, -0.89316465009783, -0.3008958350785841, -0.7183722456555384, -0.2504849207025113, 0.5063633344030087, -0.19485200474513942, 0.34401457749626707, -0.08114949247243729, -0.5934988438428458, 0.9624523117030281, -0.607134448328773, -0.7868713681626165, 0.15025004289945382, -0.4784601364687434, 0.6491737700259768, 0.8170986995987073, -0.6795519301529999, -0.7620636839698908, 0.9344193470742621, -0.18031406275585152, 0.05441840144898536, -0.5760928972568898, 0.13937393774338616, 0.18414024882309205, 0.14653299252464091, -0.5611639984291897, 0.6090129197107188, 0.34822781343401804, 0.0030617934293227776, 0.1587490869225585, 0.9408253735595556, 0.4546853081993505, 1.0480905783568226, 0.7480813065828504},
{0.23281510422435778, -0.10373801086600368, 0.7496776517650545, -0.11137743276024438, 0.96926578416381, -0.8398205810377398, 0.4657674665218023, 0.3709295620016729, 0.6557370245162997, 0.7828938376730097, 1.0399279791483718, 0.9204170935513265, -0.13791744994436445, 0.6060050200648446, -0.25401320783883397, -0.23341618434301836, -0.8161761483713664, -0.8727108953269971, 0.5028871115774376, -0.910664495494941, -0.9191406723798051, -0.8787894846079336, -0.5779606426023127, 0.03120285910089477, -0.7592572776372437, -0.0975719809652947, -0.7101492858595527, -0.692182709756768, -0.2902089374717434, -0.7168464470952786, -0.58364349940036, 0.9561505555164993, 0.06384957197817512, 1.0258531551899173, -0.48768078939906634, -0.4527596154911859, 0.5513025634580381, 0.044809230027714586, 0.23911924664595846, 0.5255519383318835, 0.3068511496329665, 0.12037408635431066, 0.057285022107757724, -0.7055216575983446, 1.0703893444666204, 0.3316257445981921, -0.43202082015350507, 0.21153545587348627, 0.2384368276548572, 0.2966562448585035, 0.4166554724583786, 0.43246286788608573, -0.8309627710497336, 0.37987545711773296, 0.45825836240740536, 0.41078801158385087, 0.4826133730500686, 0.44006913270098413, -0.637037408384351, -0.6849646189515995, 0.7530111833822191, -0.32497904592062804, 0.4186080517070972, 0.7608215790111589, 0.753570774926845, -0.4940720064787708, -0.455545426013103, 0.5158080649193691, 0.5508480727681607, 0.49821423677740395, 0.7039733899952002, 1.138302001257929, -0.34303258870710973, 0.8342995146223211, 0.2522212013178443, 0.48911092586375204, -0.16729294182655538, 0.6056324255823751, -0.4462415559567965, -0.4860023271628177, 0.12674608748874447, -0.3292464245502504, -0.7412907396144309, 1.06557690099043, 0.2494777527236685, 0.19255484039412896, -0.8836008291531708, 0.7340363429546507, 0.17430152421778736, -0.09953908376444782, 0.3896400128602109, 0.818546474817488, 1.0245509487645261, 0.06371563279089162, 0.987333998172122, -0.47155919637679167, -0.06530099715390641, 0.3922815387260053, -0.18657535928783034, 0.060357142873861305, 0.7508204299325016, 0.16821655680710085, -0.2494107765185335, 0.4628025609069704, 0.2431448205733562, -0.8637101069972384, -0.2986247281351181, 0.9077275360798555, 0.43423897681404033, 0.553391589701605, -0.22292111469195958, 1.026090400508606, 0.9366976456489863, -0.3762286141445911, 0.0094302097039834, 0.027633941393845472, 0.3923582566487185, 0.3721961034276873, -0.41523101662258705, -0.038926226058017585, -0.9356696395410115, -0.01706700940407659, 1.030151590540897, 0.8008525151274337, 0.48457151447286123, 0.2814750400482143, -0.8913267424063781, 0.7332567469253309, -0.05405392571134484, -0.4228262052627722, -0.5770245208243924, 0.8500237104836519, 0.22945502956419556, 0.47947384965311984, -0.5630313575823042, 0.5405580901466007, -0.7613300591011124, 0.29341760768018205, -0.8784349226547014, -0.8931131921621327, -0.6878501074177024, -0.4919767452441855, 0.6858691953967033, -0.8461687705300527, 0.9799334228279264, -0.3343185646308113, -0.789032054413273, -0.8012771121234938, 0.3695700607629381, 0.1704309768816864, 0.7780027810215906, -0.9007273728396102, 0.22586039985406692, 0.47237671758827615, 0.9458792782935449, 0.05233554058311283, -0.4787372707353328, -0.6225350955028648, -0.16395108405439418, 0.046780813793921516, -0.6775715566247219, -0.732633757927628, 1.0154950049649232, 0.23067325881405912, -0.4396433443440083, 0.5631055752354437, 0.5261183757049717, -0.15999945477453284, 0.6318388182594643, 0.31500945184276996, 0.17279773250382358, -0.7149328096323877, -0.6864647047171745, -0.3070571369145248, -0.7540254508152098, 0.5911226169017242, -0.3915559750788731, -0.34014429194902435, 0.4087178087239137, -0.27141587290435254, -0.6988435955928988, -0.7243471373363659, -0.8076978281860061, 0.1629439213388133, 0.841250827505703, 1.0040847553381675, 0.4429679134494496, -0.06468673521070617, 0.1520344906766994, 0.48802477428435287, 0.5782656985117616, -0.37749278051370766, 0.0772184860922412, 1.1024423338169618, -0.36307617819062576, -0.9479555979652545, 0.8039168046223121, -0.1799299934433739, 0.9948155496473121, 0.30529143432622047, 0.06451945600799777, -0.7997098903928953, -0.45402445498615446, 0.6844275309562217, 0.1497299973788609, 0.3701978359333016, 0.22760595492240074, -0.15854684809788783, 0.09804337064414308, -0.38260474691099117, -0.30182105459942304, 0.4687767862530685, -0.1909428290451246, -0.12058207332806953, 0.11518170705761965, 0.019019719290488114, 0.2617762974810366, 0.9675084802562287, 0.032242706601524306, 0.4385611730608745, -0.270606296655432, -0.1816760410874491, 0.08744032900249571, 0.7521557375773299, 1.026006388586048},
