{{-0.6894338221548257, 0.750636495516385, -0.39468208134091765, -2.0666358889738112, -0.07017430669742006, 0.8058708768793655, 0.293704263760163, -0.5657321982649751, -0.655782965875178, -0.46500886025252597, 0.7295755706641576, 0.5772785013938196, -0.5442468853190686, -1.0448295197179802, -0.21665287056825636, -0.6571263521345015, 0.12346919606459633, -0.2578008670839052, -0.47912441635464487, -0.4335337190583371, 0.21401953729191367, -1.8749075392923726, -2.8540883961815013, -0.6643253647428491, -0.8816656534772479, -0.2831399853746852, -0.691260757793667, -0.49116409115517123, 0.3913927324360439, -2.1470899378475337, -0.5123957304651066, 0.10937581536497863, -0.8288268045442931, 0.3253744327903218, -1.7833033064499135, 0.6311970967240043, -3.671314318728592, -1.3431180418537498, -0.4533916007364139, 0.28991733369434486, -3.1762124316847675, 0.04216623135205612, -0.3089549970242334, -0.7060669356701411, 217.68847996445334},
{0.20072289096524978, -0.5536496067840738, -0.928366579229201, -0.30752775065892674, -0.07353931142110388, -0.3056502086951617, 0.5434132551839638, -0.11295316450309256, 0.6252415406237185, 0.36022066749612575, -1.1257487823495453, -0.7266051245883554, -0.29399502876516653, -5.212144484071988, -1.2058310467246218, -4.988527351230287, -0.4494721837297418, -1.251495673725185, -0.871775369170757, -0.41328471644942205, -0.8972703701797125, -0.8278867801759174, -0.621747363670903, 0.5755784326033744, -1.1645705022011075, 0.5486908460740386, 0.07989743558035324, -4.5534078351906455, 0.4327995319186194, -5.415015731368164, 0.5157863330341411, -0.7428605424024296, -0.20674559701239295, -0.6706767830338223, -2.0347359032034604, 0.020050551494649883, -4.527476050428701, -2.5620780485199117, -0.3949462471748767, 0.3088712197516232, -0.42604473449959, 0.08629359897141725, -0.8175355361168437, 0.021465316437527054, 484.1556316394957},
{0.6097826536967179, -0.8484502956997604, -0.12784369072203827, -0.16153001371185405, 0.3153903182686717, -0.7054228779615401, -0.31386337678676607, -0.5386871026867354, -0.7706211062313676, 0.29882753171915305, -0.1937996346011657, -0.9088639615254895, -0.9876887476040798, -12.49444959691546, -1.9677653519859821, -5.602784266478359, -0.6950260009171033, -0.06005749226543683, 0.33869785044557665, -0.3369473420022742, -0.3244663729038785, -0.06027998452196599, 1.5411365451443824, -0.9008160331442542, 0.42704075078984877, -1.1799970350200992, -0.5984686724531586, -5.816404924357037, -0.6545661845328944, -13.641499027714772, -0.7650565225568574, -0.4213223574414072, 0.7328358008186678, -0.8547440924864045, -5.166186110030314, 0.3182428715642488, -5.490621874095814, -7.553962237190862, -0.1466541309718562, 0.3889563318879578, -6.669440590390697, -0.6497720521415382, 0.4082254236389617, -0.09344984493353185, 394.68051343071306},
{0.2173673979247656, -0.8312079324303704, 0.4903395504094825, 5.499212982810415, -0.3921823138140774, -1.1222264137170448, -1.2309773715598158, -0.8939534999248291, -0.47010772512613114, -0.8511112728304909, -0.5694322485672954, -0.26807946009184824, 0.6009782672109005, 3.8665615997900833, 0.020214892498800905, 1.9095674936083693, 0.2713188146073399, -0.10999720420758255, 0.14460174396362316, 0.3222883840686765, -0.7905017969901149, 1.0385689928350155, 1.3009810689408403, -0.415902826869602, -0.34531754475062726, -1.0088990058541125, -0.7477680165441252, 3.521011609107574, -1.0516378246296678, 3.7702989038182957, -1.3558254647230974, -0.7325414905121101, 0.2793242795509151, -0.7753800738611758, 2.2074448991707145, -1.1899461494457653, 3.1571458287671286, 5.15992366270725, -0.4781549891872001, -0.4443156793207788, 8.582020507533949, -0.8530664166008131, 0.5018654310327793, -0.791770808454468, 461.14061396315793},
{-0.8590349740422225, 0.2629566879109448, -0.28705290678521045, 0.35236327638592685, -0.35164364964930306, -0.6925151924442282, 0.7715404573663611, -0.2894272102436389, -0.051764441636347365, -1.0675063899921304, -0.43696621001633185, -0.30006755008101194, -0.3922840630642489, -3.2516514091377946, -1.7694781567573998, -2.8151076773222545, 0.02249152664036353, 0.6994907913332876, 0.4377339933958773, 0.3611004228458156, -0.8871402002320112, 0.08888424215273658, 3.720029136848616, -1.0721895137871764, -0.78436625309198, -0.09420896196280164, -0.502244813488797, -2.0551232963377166, -1.0222228028199187, -2.988197618761137, -1.1213319915271618, 0.22227837597651356, -1.1185947076492673, -0.1543444099681619, -0.10680160841706555, -0.45409756162285114, 1.1407879220315, -0.46783827098733977, 0.22204897075588242, -0.32366832417064256, 2.706047950064952, -0.7246848163562036, 0.1446591431821562, 0.2758777451948982, 406.8816681335737},
{0.34575181782317993, 0.0011699226351896046, -0.5253167742543092, 1.2424351714023023, -0.9201161289081983, -0.9836716141773051, -0.29754768929885306, 0.5191708457274973, -0.2487195881281954, 0.5318512363153581, 0.30533649123289053, -0.20613514615382425, 0.08912080454757926, 2.6573700786719283, 0.9584614580900004, 1.2603036593515373, -0.601125655783182, 0.06377722736870253, -0.25802852672374815, 0.16578984873609223, 0.6111818406091245, 0.10855137175711893, 1.5584252273014942, -0.4255260661138922, -0.6415442518913089, -0.1747755981911199, -0.06431801842411548, 1.925695699095362, 0.7644945545841316, 1.3835615332988829, -0.8300468717912395, -0.35992275072057056, -0.5668065341323926, -0.4688868411410136, 1.9412428191686706, 0.05542803171622607, 4.300892407788836, 1.2698244030148282, -0.7803633221776035, 0.4794175628390693, 6.131919552419816, -0.10787391061537129, -0.07170658762529127, 0.6900197133547786, 386.9615860985912},
{0.5397666622487309, -0.91795977714252, -0.4808211070601154, 1.3087149911611777, 0.27450228921871755, 0.725513448668132, -1.2561780053680285, -0.6355176201745701, 0.2466453985043921, 0.8277886280894505, 0.08749707990917933, 0.8075539793379792, 0.6002045065035043, -9.593087789270381, -1.3809694369754184, -2.6795191163492746, -0.6273384880723828, 0.29801169438466835, -0.6554302798289714, 0.7088432673093723, 0.1096836622564557, -1.5305605768678892, 0.8255285976490678, -0.46526023464681165, 0.35486509337299965, 0.2865721868599743, -0.22637816862788998, -2.6542923798028206, -0.997170940907574, -6.840007685491616, -0.9900134384400489, 0.6875412978897995, -0.7241311165831904, 0.18415185722720243, -4.246078958453035, -0.7653927998387747, -1.7148640970509934, -6.950123330365619, 0.5081778579667984, -0.6900766868727938, 2.3035788321865427, -1.0383812305775626, -0.019869596027007882, -0.19483010322913744, 307.8914869102799},
{0.6429372018407873, -1.0145007954531395, 0.8374936910449251, -2.9413681111007626, -0.8370188347836097, -0.7874671985055347, 0.30871164157637704, 0.4945148761399017, 0.14962054723340504, -0.9802991973000429, -0.559243912955197, -1.1462345383436918, 0.18834855957171998, -6.597114487185393, -0.5199800229402713, -1.9943948729246848, 0.551435218848819, -1.0859775935855616, -0.5991216394674749, 0.305895935507173, -0.11340577571907551, -2.6692030084624894, -1.4374801748312196, -0.6336319152803053, -0.7374964671795305, 0.6959539032850739, 0.40020798630336435, -3.6247211481945865, 0.7071932295002585, -5.450204760835841, -0.9115480801689444, 0.6541869926393318, 0.14809412924857177, 0.5633549043971058, -6.242057634480597, 0.02479781253693943, -2.9781541099251996, -5.519233680335224, 0.9289549567686688, -0.5715302324473445, -3.944509109717145, 0.7256862192518991, -0.13361863163201185, 0.6994476616941304, 192.6515215783205},
{0.23849135545934932, 0.5926452454025004, 0.11702153786719446, -1.5772250122843505, 0.8100918800550033, -0.906050689591037, -0.2643749392624685, -0.047477988159699794, -0.670339571376042, -0.9538356940904351, -0.5508872491633453, 0.8774571750489943, 0.23604217790763993, 3.8927458134328536, -1.0005894131270745, -0.6084972701329212, 0.7361132522644723, 0.41724617935326097, -0.3488242269917576, 0.07323455684553193, -1.020644895007778, -0.2735615174517371, -0.4121639679101764, -0.2124914710177964, 0.5081482489479209, -0.19926377813138996, -0.06936686933193506, 0.2815692033627022, 0.7191409577502709, 2.4843201845309673, 0.5559305466979034, 0.46153302148912995, -0.47948898808976986, 0.22027487030039064, 0.2630605299382578, -0.2682418126066763, -2.7666325699062098, 2.8388489639886214, -0.949453030870376, 0.18160615142935785, -2.446229015454201, 0.2625765137172765, 0.4609511256826222, -0.18411138549663367, 184.40766159928},
{-0.15303249353126472, -0.994603709975828, 0.6681367403559882, -2.1730033035317016, -0.10416088287451546, 0.7814526447573451, 1.2608813212112293, 0.37143150652436807, -0.5637594365859544, -0.6460163546258569, 0.3606888302230202, 0.6008161793355361, -0.6591397901773053, -0.7210373279885466, -1.5142428172963895, -0.4151749516440811, -0.846107043723843, 0.8319897884633927, 0.4271036842589946, -0.41738488206976476, 0.7832485447719478, -0.06058349593483972, -1.2774502095150067, -0.3787950920808506, -0.6532497464101064, -0.6453892826080546, 0.5434686567516723, -0.8465985673301492, -0.5127816955918583, -0.24127383338774347, -0.17399174730246109, -0.8561419660917972, 0.3714593373027905, 0.6130596593126794, -1.2706244478339261, 0.5715698325199435, -1.2196559363367478, -0.15929912940158863, -0.28375503396488083, 0.6176153388842534, -7.011114201298993, -0.9435553951772517, 0.8609795371125295, -0.5275576460003871, 123.68511816988632},
{-0.6158758301102188, -0.34630948392644817, 0.24631859381921092, 1.186784902066193, -0.7530541319992788, -0.6121207442636922, -0.6239289509652469, 0.2944787864942557, -0.8694430976151811, 0.9035492386900527, -0.6933099026162459, -1.254895876549519, -0.3625532060327854, -6.455324666552502, 0.2115044668920258, -1.970122697670898, 0.6932384967732429, -0.15829218423542118, -0.9307639649433814, -0.6634822958389356, 0.1451052844953875, 3.8208555354555173E-4, -0.17962520174919813, -0.2542687517991858, -1.1321013978704022, -0.830016522522015, 0.9714591890287095, -3.4063125295249943, -0.39042880990426115, -5.649221917939602, -1.0249524191398993, -0.11304498708752608, 0.5615727819987616, -0.8723454155087508, -3.8079525678418618, -0.3466493596146021, 0.8028157294875633, -3.2740863124009536, -0.281525560323515, 0.02086616840649167, 1.253812820008439, 0.5663368224183492, -0.9724763041599931, 0.010987684758039629, 258.55591344216737},
{-0.4551749686930642, 0.19629638922360995, -0.6490288352121237, 3.3115643544678757, -0.6234349745461399, 0.6550108916877282, -0.7421212998547259, -0.9037363104161917, 0.2463989076739345, 0.5680663783050837, -0.3034186223684071, -0.7278626009761363, 0.6848965688679332, 3.35872192808271, 1.17311648601394, 6.493457188101376, -0.669226531195786, 0.14672854432441051, 0.18804574090574727, -0.8680416806063141, -0.9970624591877543, 1.1319534060316019, 0.4375080384379234, 0.6312714983443857, 0.6406323125220162, -0.9165881690711613, 0.3803871911246303, 5.83386520527073, -0.6694280207778226, 2.672292392384454, 0.07137809869631702, 0.4828511449803047, -0.020361778400140893, 0.14025149480245253, -1.4205349682153898, -1.1419414767327045, 6.937575704586498, -0.7778857602928346, 0.7326078521877265, -0.3511117230001539, 2.0833398963282983, -0.6876477384268764, -1.0085543067098512, -0.5598719990645288, 324.2834456049358},
{0.1565858893391254, -0.40913600956162, -0.4384207221398275, 2.2481012145961907, 0.691648352321008, -0.030022882781577182, 0.6882731216877612, -0.2302484284919442, -1.055836860595338, -0.5463688676740698, -0.2064182515069873, 0.8103752196032675, -0.2547705855943727, 12.32339694611766, 2.3457190843108315, 2.3678138564608897, -1.0966733012044076, 0.7631891175420311, -0.5407909861195249, -1.0941480718228263, 0.34729881871477014, 0.37953187639470964, 2.9471649251926126, 0.3130222321273406, -1.0196230536507627, -0.9524407252598147, -0.8588372216420549, 3.738863549123539, -0.0064518467813973225, 10.126143531882034, -1.2474345148873307, -0.8741916612584711, -0.3934889055499314, -0.2680596877239308, 6.286608297933687, -1.4962483997407714, 4.2817106314409275, 8.437854311477828, 0.2727274151177991, 0.4726558550134858, 4.741433108014105, -0.3576786142314789, 0.2193642026845824, -0.7741425277288513, 368.4252010794979},
{-0.7880719008018608, 0.25303751306354383, -0.2409342574319659, 3.3777435417725665, -0.6021894681275846, 0.06736855936722569, -0.855272703033247, -0.34130675478879086, -0.03748164637479075, 0.055620058822658754, -0.22413245785525984, -0.7719717499133005, 0.4475890700489789, 3.531293436605163, -0.5875413387675368, 2.5255067268164177, 0.01022307107971776, -0.08233075181005006, 0.010984860902757238, -0.6388580556049266, 0.35227008433385365, 1.0425217535178153, 3.0845683713772214, -0.673939300645441, 0.8311245206070614, 0.06865202502417987, 0.6251713534390864, 3.38311140220409, -0.24156680982511655, 4.425670269333783, -0.5603279835115609, -1.1068754382696788, 0.6396066591393894, 0.5699798433193677, 1.3406443520438986, -0.6633520856339925, 3.936724802387433, 3.7689516425679295, 0.4376237933761971, -0.06577477218905466, 4.465104565166759, -0.5308625450899235, 0.31155707550421896, -0.6571410757239877, 239.09074847508586},
{0.08874763774320746, 0.47215508434144177, -0.8254050180309698, -0.1175987907807092, 0.1883634176030926, -0.21225912578737233, 0.6936473611181959, 0.34849703637262375, 0.17240780284976495, -0.39078095962364695, -0.06947565697029467, 0.20260152174769214, -0.23551741817158556, 0.06578517019418213, 2.266427800563122, -0.3944428739539797, 0.17487380805153435, -0.5066566108124946, 0.5406710218742988, -0.1692571258888088, -0.09206731352698495, -1.3351635560532344, 0.056558353357807664, 0.6375380758248886, -0.966409298107075, 0.10577191523725556, -0.21296561298091024, 0.3024181935714363, 0.06335823509810969, -0.22736095845649545, -0.9867551008478146, -0.2407848498221243, -0.5128522723368034, -1.0502684314174378, -1.3971073919412698, 0.8154755614159631, -0.490316758695736, 0.0409893241753706, -0.9172052244309621, 0.2278151628523225, -2.3988887942729535, 0.6968710416934789, 0.3862056194580074, 0.41277073396494984, 140.14616732593137},
{-1.1348136084052605, -0.7895282369507691, -0.440185728769133, 1.9718631473555035, 0.5348082290356759, 0.16705044493762158, -0.7149993055733564, -0.7896787280977224, 0.5856298265686509, 0.43636395374388615, -0.8703455004988102, 0.09402394550527174, -0.6087717400551567, -0.2418244838198358, -0.408731442158781, 0.630991927443331, -0.06490927576956126, 0.5025621112790342, 0.6334722407602038, -0.8336571467146486, 0.780546486530971, -1.5311364182581126, 0.7401359671394208, 0.02978886105155999, -0.07483247490282842, -0.5882959497013713, -0.1306466462856316, -0.15168695420638195, -0.4228128098940108, 0.36730923639478713, 0.513709590981555, -0.24971409193837749, -1.0362402093745091, 0.09085631612520098, -0.3711040254634867, 0.8739525901942615, 1.5553172208659882, 1.9587798205210973, -0.3002274753765562, -0.6873747154028016, 0.6576748384149761, -0.7214175643083534, -0.6408416739527215, 0.4407163328560953, 164.27947709032625},
{0.6770178636893627, -0.5661353163584465, 0.37886745908134145, -1.9095897008025176, -0.6107060212728292, 0.13643034791999137, -0.10380595149768419, -0.1951666008085224, 0.7091350257283776, 0.6720175906339014, 0.839402338815621, 0.48182318936388197, -0.26528725101201633, -1.569101130787472, -0.9906680234884878, -0.9826243680951331, -0.7045964159753599, -0.6085024156489929, -0.165386567061919, 0.8280860338799614, 0.2469437217420212, -1.1882724095508361, -1.0168708007476068, -0.5157553668127263, -0.2822974524398423, 0.7913127577613192, -0.7953291565255608, -1.4591890021753908, 0.742269053141045, -1.7329015208888567, -0.3326015455309725, 0.40506764653162175, 0.8122942324137941, -0.10349124740729408, -1.059192849178528, 0.7100604156725115, -2.6654246826880534, -1.375572665109816, -0.10092077631090803, -0.38292816430558096, -0.2253198427937846, -0.6343806138252456, -0.6055160888957031, 0.5864209008242839, 118.67008289807082},
{-0.3795588769224489, -0.2847514108534313, -0.518447701526238, -2.280541499529606, 0.26161370632693753, 0.37852070065700727, -0.15055539171947185, 0.2916120264442744, -0.014070776161172362, -0.9968710879655798, -0.6532424667820922, -0.2886902313507185, -0.23056623948113789, -2.1670187281294937, -0.17390390756818996, -0.7566530141015382, -0.6853091734139689, 0.34775562448075126, 0.7655580065035026, 0.6381865987255785, 0.1169698302037016, -0.36757650665985403, -2.699472707414562, 0.3725689710675737, 0.04101453904895116, -0.45207925668557597, -0.9470619362174384, -2.2311939150775886, -0.0830492622066271, -2.568027550788042, -0.4221461931012027, 0.016924680957432645, 0.6945303304043999, 0.04955886176591179, -1.5209233687858306, -0.8731592363319534, -1.476396603350569, -0.6649855738658457, 0.905155583691981, 0.5650039244102679, -5.615336549235074, 0.6585577236584771, 0.33090775978421355, 0.4380823508937106, 136.27740391328942},
{0.7532743665819209, 0.1640368399620773, 0.5807937699199656, -2.828600712556391, -0.9613085958895886, -0.8261481083189162, 0.3366416761096984, -1.0948528400834576, -0.5549229367643563, 0.7305357376486413, -0.5867150050192064, -0.49325593411612817, -0.38833042254779576, -10.806877689530808, -0.41921856400000646, 5.901696595779013, 0.6383085085630382, -0.47382026212787376, 0.05940867270592485, -0.7630586382501362, 0.8516204318759949, 0.12857459855869366, -2.3601342496441777, -0.7395592617454627, -0.3763852974331228, -0.358331269260537, -0.2259892139912239, 4.533448259856209, 0.22497685238590887, -9.139690658879646, 0.8807796351447975, 0.5908653712122571, -0.28831336905787636, -0.8603593921452207, -9.614198705356017, -0.4559263321010135, 3.3307588481627213, -11.255709628407468, -0.3698697197389818, 0.5980909148285645, -3.022094444044149, 0.6095954932015899, -0.7387739812775493, 0.5672287603770854, 239.09178852498297},
{0.028420267036831436, 0.9376567842266298, 0.3197616287380439, -1.7221130590849532, 0.5023250275950305, 0.6491923137285001, 0.3730986055835097, 0.5888179309847124, -0.24339439900632878, 0.6006004944601135, -0.23024008516431055, -0.6122998251646729, -0.22519192036712346, -3.0305250472582848, 2.1340923095495654, -2.8439168267165695, 0.3438472020060908, -0.5461258877618562, -0.8138004627674055, -1.0000814865634997, 0.6920443828403722, -0.6945257111105476, -1.5744968072919232, -0.78944770496559, 0.7985962536786646, 0.015991218963936203, 0.12310075822097376, -3.0223978572041656, -0.40185641783423465, -4.586061632899824, -0.18570555072840791, 0.7752017373809653, -0.13535424441800809, -0.7434073993842651, -0.6840474243949826, 0.49423597570129246, -1.4759838419191562, -2.034561017695404, 0.3729713949610573, -1.0080505714957455, -2.5364580230088536, -0.711078608043379, -0.6350695812929751, 0.3004493714662958, 253.18734103549525},
{0.5751224218247134, 0.3613098232795323, -0.7921974484978854, -1.0803092597037331, -0.7311294745345085, 0.6378448870608744, 0.15515024727164356, -1.173818070127349, -0.1621620679432045, 0.7060982450863201, 0.28537254909255916, -0.3496525192613772, 0.0929059088432403, -7.1237052333461515, -0.6646350383540462, -7.460649957084829, -0.3071173750865753, -0.35008361744790334, -0.6262698098361044, -0.23975309106041046, -0.2871290428018222, 0.5580463119095439, 1.7289249468693135, -0.9484084126695395, 0.16206035698668914, -1.0785800310359197, -0.6894645537202171, -8.525762479527614, -0.01608576943406114, -8.634204859899809, -0.4712270498942303, 0.26675054962541295, -0.7198474236281357, 0.20500046023371313, 1.8911535921484801, 0.5673766900732096, -2.373642347105625, -4.072754951814725, 0.7709679280772244, 0.03621875301351396, 4.22448800118975, -0.26939383225139707, -0.32312785904711555, -0.35115963362193714, 274.5314950728388},
{-0.37503862747996297, 0.13440290830949933, 0.5992694692864922, -3.123637077468197, -0.6751406593628271, -0.8874497309957993, 0.4760656079481261, 0.6096556033093116, -0.41905123972987424, -0.16892776961032885, -0.9474167967979295, -0.10051052860075646, 0.1030777237909487, -5.9648738913719415, -0.5328136170278729, -2.2150882866848054, -0.27604808727262764, 0.902480289404427, 0.5989198683738404, -0.25635696394697854, 0.30031005951057693, 0.3584682396703151, 0.9168185670828197, 0.38363891796109106, 0.3400531057966093, 0.34297434547135097, 0.8689363133340778, -0.7289191030754413, -0.3295850744470163, -5.243725439413226, -0.006429595408096504, 0.6319715041900095, 0.6210306806045414, 0.2647583570628347, -2.377875929551524, -0.8343787980019841, -1.1167472583302578, -3.653677528336166, -0.6336053253134231, 0.158541462919746, -6.832042019478027, -0.12234296960936732, -0.9990651462973601, -0.7671846673573415, 206.28080857951895},
{-0.30292611557871213, 0.11244073252360119, -1.020191024271792, 3.945158539393313, -0.8844234261734671, 0.01864234551794709, 0.06649185146023533, -0.6992794871012976, 0.5532148288638206, -0.2901745237268053, 0.6786925240748196, -0.495043743814899, -0.41071884311538187, 8.019953985723125, 2.19634041422275, -2.787446455121083, 0.9818189033130236, -0.3300546405441982, -0.297734258814343, 0.618841413002339, 0.4077912970537829, -1.1847736492243748, 2.722688413661782, 0.8192677567796137, -0.31478164309863116, -0.8537188754593917, 0.2553964796951407, -2.362674078476666, -0.3086501324238894, 7.042045657316387, -0.732031847282984, 0.700378258869738, 0.7329581933254148, 0.777079643560522, 6.731632564003247, -0.03712591933115995, -1.3998610715807596, 5.726142405433942, 0.578945331652858, -0.9523862958347438, 1.588993991993628, 0.11948113885590442, 0.2334326274240212, -0.2400188959253986, 181.8304694761309},
{-0.7520581440819982, 0.8269453365865137, 0.7696580054025925, -3.368706407991698, 0.2552237161809904, -0.010089957596969214, -0.3048307973070095, -0.4514764048974155, -0.923225609179902, -0.29704859066167805, 0.09979233179126765, -0.9055744143078603, 0.8495914966596883, -2.335619919879862, -1.1627223354229443, -0.6198083187994109, 0.014455507448585113, 0.15326876682595703, 0.4196188035450026, 0.27344476136376134, 0.20644988828079347, -0.16934579726779964, 1.6274057334132381, 0.543140520489381, -0.9336453758241287, -0.45793515929172063, 0.5382286330928284, 0.4737690753995178, 0.6553862423913419, -1.452633783345572, -0.4754914834744232, -0.09442853331172261, -0.9832128404780883, -0.34879816420191445, -2.668043158453714, -0.03602128653212614, -1.7115070683719797, -0.6221894149519479, 0.46353536475486834, 0.9648233636399572, -4.827711168447702, 0.5226711478326916, 0.9274035307276963, -0.20036929315514895, 134.3937301781973},
{-0.13089057337035095, -0.28852191259170396, -0.3286196769642341, -0.8026366808208534, -0.6708978266148161, 0.09509158164076371, 0.19214033896029944, -0.9117241942941149, -0.3852386961453381, -0.1457637380496673, -0.06098706930266224, -0.25646425613942436, 0.5304097197981016, 2.8109721592988244, -2.5670606802836007, 2.3295622350677996, 0.7029806065365571, -0.8433348322099303, 0.1861064232315219, 0.2227050520958508, -0.2613234065873955, -1.1143248112315502, -2.7856790359925805, 0.7773780472088684, 0.5775323606991104, -0.7168908178967527, -0.35528295672317717, 3.7042952576470918, -0.5245159312581775, 2.8266016821565665, -0.21163927409974667, -0.5615703336649043, 0.5208654510153534, -0.5711947399683702, 1.1962701898609651, 0.6372636529517383, -0.8448428174884804, 3.5904680980202093, 0.9979882347057539, -0.7862053090795482, -4.399346174360717, 0.5513019371308294, 0.3800091233953015, 0.5658973637720746, 169.26795219723354},
{-1.0675922508442408, -0.16994544385962707, -1.0036748211577207, -2.0354901824627913, 0.2719225541686964, -0.5205434130493589, 0.03222927325605411, 0.2942819842112863, 0.7676488535190878, 0.6405544932308976, -0.09438072097115441, 0.22941636371895313, -0.5602825684790947, -3.3471807374762332, 0.5492298716441603, 0.555032972883154, 0.4029134731081178, -1.1012829365050967, -0.6027307758207214, 0.81353851004181, -0.33409879345673493, 0.5303081376407136, -0.8315612469432914, -1.037759825282165, 0.3399367035251373, -1.2477392187922793, -1.0009255877747931, -2.814648433737524, 0.5886819931563849, -2.4815998110394393, -0.48166362779826927, -0.1838580931099203, -0.4275446052485896, 0.21011605866805677, 1.3619946443644106, -0.552211946087196, 2.994232582190814, -0.8979482674129661, -0.005303551510369639, -0.12560609851289212, 5.765227503278433, -0.49837225402785906, -0.8080246943998319, -1.079101454434507, 221.97985529534947},
{-0.7885401985557723, -0.6118904407252822, -0.9420647768780245, -3.639287201103756, 0.31368655732074846, -0.9580816327253744, -0.6628408410549677, -0.8294328305469402, 0.41891575844866263, -0.8862764711738973, -0.7611236688860838, 0.47462054798795816, -0.04879183298339839, -2.269902648914758, -0.536901534604295, -1.4438885753254782, 0.32256158523233913, 0.19769191520024482, 0.644511934917522, -0.7916455963433872, -1.0277704653272424, -1.413768123431056, -2.6792558808301674, 0.2695350615216533, 0.768118120810528, 0.3450954754899677, -0.13159378889425363, -2.8108052510299166, -0.08410095007181181, -3.7085956546241117, -0.7628907079536705, -0.025215864380085617, 0.15300188493669833, -0.6428790716140764, -3.247254691266536, 0.41277853615687143, -3.068000088160091, -1.1140863596882906, 0.10699597690080109, 0.6401400110280104, -4.230365985351004, 0.3851677587534962, 0.05881984976446761, -0.017891058518015382, 212.1649183538099},
{-0.4692588384845541, -0.048709253048907004, -1.0733477140076824, -2.026471922280974, 0.3494453898908956, 0.30289266094880263, -0.03765763099582004, -0.2907830910390783, 0.27748326167185305, -0.8869225489603607, 0.49707664094524145, 0.24292480899436092, -0.26203503311848775, 2.0341774216086477, -0.394817314855307, -2.2468831328585606, -0.2649033104866091, -0.3102492439432364, -0.7707919209381114, -0.13424356766317797, -0.6427728170297836, 0.07093527475817013, 1.3612361430065127, -0.8585336332436023, 0.4264567897823272, -0.5558175377223469, -0.08407848342235383, -1.772458462674266, 0.20427866811610518, 1.8442629555355419, -0.5540367188386885, -0.8907572070531722, -0.2419453069678535, -0.5795067334203295, 3.2996784198110403, -0.03244572222323832, -0.7436176839167391, 3.165917693075867, -0.42483776007319396, -0.5130228702372981, -0.6931012254650128, -1.0637364595630028, -0.7392763723066712, 0.22277477917633665, 358.57137369377386},
{-0.2742786069206911, 0.35946721116844743, 0.42852785035267804, 0.5724618624864324, -0.09150982477237422, -0.24141673986289502, 0.07678485592707077, 0.16870195360530157, -0.3665859015347423, -0.21190276001838754, -0.3130140587614068, -0.5775233112010346, -0.8506210028430974, -6.124113735917608, 0.12999443491971382, -5.853701841207838, -0.7205534093334047, -0.8222015100043072, -0.23835475933443528, -0.8604752522540777, -0.7143980238485278, -0.5517887735580992, -1.7429564503421713, 0.09733192985083246, 0.24294062236293074, -0.016445423016276342, -1.0496821875765525, -7.643054003191176, 0.38628302414873195, -7.17637545929705, -0.6363158008931681, -0.12154600415875504, -1.3291942938574886, -0.029667064652294163, 0.05005530773135871, -0.43396472143897974, -4.881151481858007, -2.1545405660276744, 0.731587972829762, -0.3474265265486939, -2.5929425096014644, -0.4115036317051843, -0.05055228143937982, 0.812498500368011, 373.61469074588854},
{0.7387700182124218, -0.6698207270053315, -0.7893769025591209, -0.7383959589635406, -0.3536185909709075, 0.7558758069816192, -0.1715429528072886, 0.8482002518366805, -0.7885235566589046, 0.7646913348898403, 0.4749224871519367, 0.4065933968926926, -0.9277528913405495, -4.800257292503005, 1.5948068657815175, -1.9728133047613672, -0.27632005618935807, 0.34945969445072256, -1.1834572408860229, -0.4784103298829443, -0.5107634287498981, -1.1522950166345776, 0.22884790249427645, 0.0920034622753227, -0.5486979380890759, -0.9432263777001263, 0.9892015910504594, 0.08405391578069123, -0.591240820763652, -4.371709541685886, -0.9799825253119058, -0.9373569856754737, -0.7886757048689284, -1.1246094506599749, -2.911856491131796, 0.3246610222254439, -2.8430936357317154, -2.5012723299916315, -0.24714154944323136, -0.5315914383964099, -4.6074164234258665, -0.39453507020772943, -0.7656479814816977, 0.09967780029556143, 233.60346588736988},
{-0.025798251446699217, -0.7637736073815196, -0.5290445560224903, -2.2577163444506616, -0.8094872437356965, 0.05562395801864282, -0.7827007172624559, -0.649510452660647, -0.6745589423811207, -0.996478997978092, 0.6420131992840735, 0.7085790410150031, 0.45665649232222283, -7.9655982689127, -2.3144868141439967, -3.730279300544352, 0.6087731420748039, 0.4370108199693634, -1.0610634954710003, -0.13758911005521995, -0.2736619728574268, -0.7383626248479446, -0.9429095619078689, -0.11282000366363831, -0.22659097766909309, -0.20948704151257913, -0.8121536561474767, -4.352797327761584, -0.0407008676434468, -8.129066635346431, 0.17849009479096145, -0.5199281479820027, -0.22664387651289905, -0.12110266552918053, -3.0526832145245475, -0.18105155108997883, -2.500128596559212, -6.764583887162302, -0.48880783234451214, 0.7790047011398227, -2.019413122736315, -0.6218427064121622, -0.7521112786954842, -0.3573763422151803, 175.2196233559704},
{0.5567956775498821, -0.12303125701448105, 0.33463869866184526, 1.9782866004628354, -0.5924498830457555, -0.14879160971397373, 0.6836562972808304, -0.6217401486419405, 0.7408627418044299, -0.476650966930609, -0.4005415739232751, 0.7506723042951933, -0.8017518964163493, 8.782229043916765, 1.1316395819915461, -3.9707601836209374, 0.09137763420652151, -0.6383030071929782, -0.9346729433615921, 0.06732284220685394, -0.7153750493530152, 0.19005397441896954, 2.381539883855915, -0.5139816628513578, 0.32291789321739345, 0.5305795882277791, 0.42461058872756774, -3.5057775780495506, -0.6238363198251243, 9.011963667230495, 0.29672245744677345, -0.33389567858237124, -0.14778782912512417, 0.585520437755744, 7.2750198327396465, 0.15801306882321708, -1.8013804142940049, 4.330778723101665, 0.34878645486426857, 0.4086812320527988, 2.4883436113183466, 0.6751815834243232, 0.11134017937572226, 0.9771332096381613, 178.00210028073482},
{-1.015872018520145, -0.7946853536502474, -0.9155254512239378, -0.5683993265023772, 0.4099764639073471, -0.654724790933373, 0.6826308316710984, 0.06552238386529707, -0.9747270094484267, -0.5831637754199704, -0.6958557927642021, -0.40657607925545775, -0.45208370050783486, -1.420260383184888, -0.2613616885304134, 0.9619618752261632, 0.055911998234461836, 0.27143778543902325, 0.74163384518197, 0.5185544424652122, 0.7586878201952008, 0.732271793710636, 0.45122520058667376, -0.026420143624446155, -1.0743612004344378, 0.10704104160485, -0.4354485007607424, -1.7376430613204623, -0.22083000379878773, -1.6549095626619335, -0.999124497997077, -0.2042720494562799, 0.06343424584119746, -0.49409026119659405, 0.09304288361678004, -0.039808049241792126, 3.9460889817774265, -2.633749606619713, 0.3662938046173936, -0.8438804044549414, 4.324677165178506, -0.5752912532523887, -0.27868663215119605, -0.15874976757099213, 167.95089655618318},
{0.7652259717946857, 0.08825107268367227, 0.009923381610502435, 1.5303920285412906, -0.9224623155189886, -0.2773823099220925, -1.1355886979588896, -0.17957814621523077, -0.8915367516254838, 0.6190904673128661, -0.4496999397966581, -0.6007233968890971, -0.14836185421616926, 4.191647441564465, -0.46069947348119616, 0.08007342209287421, -0.38333425758709794, -0.19904983154012787, -0.2488792266522488, 0.10273368811184819, 0.009568362980547881, -0.41700117210881055, -1.8931498360688164, 0.3999629721749896, -0.137836756175528, 0.24235344481071103, 0.6125113827004979, 3.5117933299542456, -0.8517460349158109, 2.0173963965716646, -0.6641756889564849, -1.0174816086323468, 0.3933579729680499, 0.16082478264089792, 3.764610815582648, 0.4794193231928701, 0.7421036684853817, 1.9609982821565353, -0.4433503008756072, 0.20977827085277712, 0.1117423413494604, 0.031249498142911638, 0.5581480342773154, -0.6829039695583906, 244.1308855461308},
{-0.5498502573038598, 0.2799891587963206, -0.8931746734331575, -2.866852609273178, 0.28743922702366914, 0.20995144669571777, -0.7877286891653585, -0.4538733532332418, 0.3588533354919181, -0.4498483576621277, 0.8141603671988561, -1.0361603407327, -0.5272155138517479, -0.24208805215135176, -0.7840302297491738, -0.8398228706662205, -0.05340662485989223, 0.11145214626589077, 0.4195942365508978, -0.14264739262799578, -0.9694812359796172, -1.1605533715192289, -2.5908975825858076, -0.02330226869083386, -0.10467801928813854, -0.011331673399921298, -0.5515752753965117, -1.8998112062077863, -0.2550674642404525, -1.75752243678319, -0.44302975125721905, -0.4479385470977682, 0.6212764529078916, -1.1740975261574857, -3.733056616929415, -0.21043449544097428, -1.4202099801520287, -2.6842638900170557, -0.4702724649945951, 0.12748968204551828, -3.1505559513300234, 0.10267920309112247, 0.8048000655409494, 0.4083685043524621, 226.73109679424772},
{-0.7953457942634292, -0.7515198202292499, -0.10722950787577844, 0.3143536400466477, -0.3375408340338276, -0.5520371887044427, 0.280576447102081, -1.2942481210249952, -0.4652094891505349, 0.005807193883080101, -0.7743763786914594, -0.45530834873672854, -0.7061086907275534, 1.0340034299134315, 0.18890207235465742, -2.0180302705507476, -0.5835983067432131, 0.45897335096120984, -0.2292336408892916, 0.5886117009611376, -0.11367766721864166, 0.47061427071273076, -4.425835929235027, -1.0965420623697104, -1.1435111906243434, -0.07549111211497696, -0.43819209179517543, -0.7947963396533256, -0.5562726183783097, -1.9478483445318238, 0.5032262760616447, -0.11945827628483639, 0.4289677350456699, -0.26173546618373345, -0.8242554441504397, 0.2715118183245562, -2.6320893049481744, -0.675250756670614, -0.8672600920745076, 0.4401549224019712, -2.151375334281852, -1.0183540350249205, 0.02643978767383287, -0.08974043010612515, 365.0406723050493},
{-0.46016438168870133, 0.007476680639751955, 0.5648501465452379, -3.3396468554557144, 0.42899245888203985, -0.3157866602468434, 0.21788718589475137, -1.0162315148333745, -0.8203482839331676, -0.072068344716921, -0.7750171807285489, -1.2060269078204935, -0.37337463161637247, -4.4341954602225595, -0.40598104041445454, -8.106914175638238, -0.8121350358116233, 0.0942577870577857, -0.20145164417275507, -0.19100800191387715, 0.5290627345527354, -2.3420894000974277, -0.94652106092552, -0.2025413487463712, 0.5617735661578823, -0.30093385196055084, 0.06419061704352168, -6.5255660894689065, -0.507740656681603, -6.1143204277148016, 0.030695107897618354, -0.8632343352504805, -0.18913860835424406, -0.8184355716961087, -2.310022576398982, -0.6097733054193619, -4.751997826233045, -3.1255794321244648, -0.9121483378810037, -0.48464509563153274, -2.9454883736811746, 0.02177096533796495, -0.43448390705158224, -1.0593789650530496, 379.6118666146103},
{-0.2884996893450701, -0.9647626544170578, 0.6028245017886352, -3.7247576833129763, 0.6153382264869196, -1.1235043614073894, -0.19383498286318515, 0.6209387756896461, 0.21591028856271932, 0.6930209930934916, 0.7675276479952172, 0.4343017794980913, 0.19777622653694937, -3.9610126314809433, -2.104928076558605, -3.774842464893575, -0.033633379604540964, 0.09085474394892702, -0.5744296710203126, -0.7985623822733648, -0.019625510939597024, -0.5800003726660893, 0.3548863184421523, -0.20119265545232365, -0.643984000746151, -0.4724104494387508, -0.12124972859273016, -2.301108763693911, -0.8967115315800936, -3.6907494831394287, 0.310874631206217, 0.5033389400008946, 0.5076651615559336, 0.1004257096887232, -1.5724671688640641, -0.16599353888570123, -3.2795449196025017, -2.7008165669017257, 0.3755411536356672, 0.03343626155665108, -6.715922926439799, -0.3186948615539556, 0.6335201913504865, -0.21348365119792329, 247.3387959544448},
{0.9055386152511078, 0.6565003417268129, -0.9517266933347335, -0.8300608557053523, 0.2987443018281548, 0.009031491831861683, 0.10921122950313358, 0.46360783121567456, -0.47257616116686174, 0.6379605107983684, 0.38117211980918264, 0.4498923850119188, -0.625118959195768, -0.27068532479118684, -0.2566522567208113, -0.3807674756723467, 0.04437333729693692, -0.5033129434914334, -0.37097148727811324, 0.01238162172040573, -0.1460184742306933, -0.28527307226069015, -3.455143364726722, 0.1253369757642607, 0.03583277216479115, 0.12309216745907658, 0.7623799381164734, 0.4405084601157251, 0.6498654924665633, -1.3009613491748617, 0.09554170321065143, -0.972377529234021, 0.044383691018132096, 0.1479849962087754, -0.2233620785581642, -0.5824437460464335, 2.234759307127211, -1.1078032763982217, -0.9217791639360766, -0.8342547241164948, -0.318117542414363, -0.3764367003176279, 0.45020865736478977, -1.0047482932549594, 190.50496650099845},
{-0.22150269348822563, -0.6640393588016517, -0.762434272353423, 0.03384028820979417, 0.5215215053665999, -0.9668715397590278, -0.0010781010412383137, -0.4617620658191329, -0.6659083563968766, -0.32916141558822765, -0.19375733787630478, -0.26954706688076774, -0.1412576281941137, -3.3531490084634816, -1.9978122026936267, 8.84045594113931, 0.7701535387505662, -6.65434769290998E-6, 0.01673847461421446, 0.1760407126315781, 0.15980718067623437, 0.31042018730079773, 0.10873550335863139, -0.5282898676138046, 0.4683055834794197, 0.5041084281054857, -0.3735510463353219, 5.548357858558286, 0.6228102042430789, -1.9814242332759673, 0.6317088125046885, -0.43540818191651487, 0.31229223016485935, -1.0687968107356236, -10.661890262394499, 0.3884423440754068, 9.989630214569866, -5.633533211631136, 0.41193723418225475, -0.8188236949870891, -3.2265691762717776, 0.38977865399163847, -0.9424565335646933, 0.4959481558690979, 170.8412182482087},
{0.5036262522454564, 0.4892131859836263, -0.20660036288887845, -0.03563270167668964, 0.1071770085358216, -0.7621082566633921, -0.6061290207618006, 0.5881874514186726, 0.5730494897983841, -0.37729798513261237, 0.7273550530682824, -1.1497188520862323, -0.06400235224586451, -0.9472077463322678, -1.2432891361236507, -0.552893538340762, 0.8323883594276287, -0.2186445933671513, -0.25597272671669935, -0.14634543347059067, -0.8809256013025838, 0.5828953815326854, -2.012437079455308, 0.6310758024699137, 1.1012045771528705, 0.7902245148591338, -0.015691370761973127, -0.9313807547083833, -0.5810602385284381, -1.2176998112715867, 1.091820972949498, -0.03632634900055119, 0.4619483555574471, -0.005944358632297218, 1.0743783126118225, -0.799576093649296, 1.0183388902780015, -0.41270882617239896, 0.2745860034054054, 0.8482310571521681, 2.7361449258758865, 0.4792155726416165, -0.7910947892758312, -0.4166589719088858, 146.76952861064115},
{-0.1117188889481478, -0.13483105211846202, 0.5928476350373089, -2.0922428868834158, -0.04433081691402189, -0.41317938344820954, -0.45486179433373825, -0.44421915295267955, -0.523839606452355, -0.8549998387915902, 0.7685470247527103, -0.1213975818087385, 0.3615686262894907, -0.9547342867378151, -0.762705127092789, -1.7936382815600858, -0.5583764674751551, -0.3628208227357206, 0.3505377549082489, -0.47327626733475464, 0.4793546162517916, -0.24885008363364328, -1.6299594363906444, -1.046697860214655, 0.15624758150685028, 0.5670425850733054, 0.6639377478878811, -2.7347595860297957, -0.5003103456014648, -1.2407118094917475, -0.27257141085302666, 0.6395464766304636, -0.5406201071998971, 0.8097072773212883, -1.534272466306459, -0.010874953942210414, -2.482223242204786, -1.814362926448457, -0.18561842381246157, -1.0299908952393584, -5.503523412672095, -0.6446356730319638, -0.31049352810318376, -0.6331440836628308, 155.4421691006364},
{-0.3154680654328602, 0.26779516756101884, 0.5352340692668123, 0.3091162964267362, -0.6788972624408136, -0.36274887856992466, -0.5001456138250838, -0.45763911540619767, 0.5686106428234727, 0.8039595085328285, -0.17795262340511825, -0.5083985546108091, 0.5461614975805622, 2.0461801436238556, -0.2373945273459682, -4.605077879861673, -1.0866924417484587, -0.14942254345984224, 0.2535226390227856, -0.3846329694830854, -0.39173851879712995, -0.33819220371715686, -1.7361643506061146, -0.9611123102397533, -0.7605243055491437, 0.4470322292678844, -0.2752878386640987, -3.8023560444882416, -0.3284881318478401, 2.364869937038125, 0.08395449796032355, -0.7062266117152585, -0.08620243924057717, -0.7112535491706622, 5.252950259174506, -0.3918577391926479, -5.321173701825494, 3.3176321162809366, -0.4782428959660982, -0.8453122567727871, -1.991863667823704, -1.2538753966244336, 0.5904839541996597, -0.5834366271358653, 310.87184794108583},
{-0.7198837049517661, 0.17120660004042992, 0.47854813369278604, -2.991103724626068, -0.411749461933667, -0.6569382270947892, -0.04393966086393718, -1.0055964152752601, 0.1738047068057068, 0.6522792956638794, 0.13251697354390346, -0.34719092140885705, -0.6250026109282911, -0.9486062075178404, -0.18163740427261632, -0.32798990274402534, -0.13047682906860497, 0.28778342689120645, -0.1951734208955901, -1.0541904833682842, -0.9932450825377186, 0.265466001538841, -4.08152979647413, 0.3065216761203852, 0.1454935323624068, -0.6482547021153433, -0.8988534784604902, -1.3866386032369984, 0.19326409459113558, -2.553260005340695, -1.0693874251153515, 0.5998373950220953, 0.2465913280327248, 0.4205843411522282, -0.20975664181492087, 0.17821569610567772, -0.40093538116924976, -2.7175030725862483, 0.4755010862970409, 0.25954319856612446, -3.138384814505906, -0.567349089310112, -0.23536150653116494, 0.7311221618499697, 268.85402640381875},
{0.617806436157453, -0.13375435933771185, -0.6064152002665267, -0.42795800587338406, 0.636869846509435, 0.677087132366579, -0.5465998046523044, -0.9373962085043207, -0.7007649841292055, -0.5551174213138723, -0.3684045964028425, 0.3234755661840266, 0.9423675321109857, -8.796920663223707, -1.480788162783963, -2.8943905429482477, 0.7348413439089775, -0.558717031160279, -0.09728211702365988, -0.32495566291545036, -0.9659396348220091, 0.8492529907466868, -1.6639673201824927, -0.5560166254212479, -0.09349360217975763, -1.3757733082019994, 0.4610465172249861, -3.4107622206448998, -0.43534923380251, -10.056267303640649, 0.747555840655536, 0.5528060682177754, -0.24356357746145932, 0.49660777288361907, -5.739506936974328, 0.23880465687992478, -3.1846434655527585, -5.909914063141709, -0.6028464947654575, -0.18678499233083629, 0.41632400066708714, 0.2587119649488107, 0.7235853140252624, -0.8810374886272581, 293.7465943307134},
{-0.5251629131605375, 0.2947130869610743, 0.9333363310602122, -2.5436478979268826, -0.6215745624155306, 0.525238914740047, -1.0573913031214954, -0.3599077705021588, -1.0233934462901102, 0.258475163802396, -1.1156262283131426, -0.9346194481928856, -0.6940725298641915, -2.1916245388544286, 0.5477270303147357, -2.289082119096873, -0.14283159868757855, 0.39998689063325554, -0.4961280991259141, -0.3289755057419831, -0.6031699365292348, -1.5973497092292308, -1.2127575371564174, -0.5625451161897307, 0.3735998158405013, 0.3304425757932907, -1.1237854664307123, -1.8949669347697078, 0.3717813883529037, -2.430378134429089, 0.9243100166685125, -0.7356431373930985, 0.6914079631334491, 0.3454555492628383, -3.4930093323003923, 0.09856859298659863, -1.8758980724649053, -1.7564982941189615, 0.939856769946619, -0.7550044228911714, -5.183616917797954, 0.15525557904730714, -0.15516063266197697, 0.31391894568848544, 228.78350491248852},
{0.688353516664235, 0.8035494227590196, -0.6872917529774428, -1.9080188051591938, 0.5370272857807015, 0.27059916802099865, 0.33412519732800167, 0.4043710701564842, 0.28981525476670084, 0.6732759982919891, -0.1141695295144988, -0.6209835474525807, 0.40711721013483354, 2.3686264064341422, 3.909057756356684, 10.344416300294702, -0.7143366223043588, -0.5038386080995284, 0.4427349627541368, -0.22577368797047703, 0.16118154510781335, -0.4219705170015225, 0.23596048630540764, -0.1269488967811539, -0.40119608246620075, 0.7554391262621537, 0.20571016747142667, 7.116795669602248, -0.05530787374846652, 3.22966285869556, -0.06022328368187746, 0.0024161470905193685, -0.11165330593429665, -0.6657518553104113, -4.2382007526367005, -0.8335522254158537, 9.599310360639533, -1.2386422477755215, -0.1828096878286667, 0.9552207619559898, -1.6735786957249088, -1.0258736757340257, -0.851489642696296, 0.6364184521242262, 217.7630629372921},
{-0.546278877458277, -0.9675936475638568, -0.12344794161049279, 0.014466506854038212, -0.28608954898046174, 0.17712573176448027, 0.4699867741330885, 0.22636427191120295, 0.32084381326193434, -1.0339417651937193, 0.6488753057207894, -0.009375416381587124, -0.2710805759358426, 0.17921490170496737, 0.7197352740441199, 0.4803897376140947, -0.5073191424956465, -0.7551682290779966, 0.04938313758474608, -0.2683170907224353, 0.6522331983006813, 0.005687160019818532, 0.5289238479170576, -0.23425635063566716, -0.3499447893276194, 0.3070900786351798, -0.12567838574871115, 1.6891100960012415, 0.08495747665950518, 0.34128798955603923, 0.5918311838103907, 0.8361404247816254, 0.018581219247584643, 0.5797589166049714, -2.0317088242043377, -0.9119036557937058, 0.3127934749552015, 0.048202440932965586, -1.016817051655155, -0.6737508578708822, -3.025540731805264, -1.0030993630385678, 0.6923545894816042, 0.3354590584525196, 169.24304407220393},
{0.5326837870089972, 0.6095500167402833, -1.1391668570341453, -1.3238084946573088, 0.34655434872392304, 0.23006645938202439, -0.2977814203332444, -0.5732647265297951, 0.14455168329242757, -0.7048457504671206, -0.0847267885604418, -0.0963593407798824, -0.04740196906167042, 1.7739768408768022, -2.698952901071033, -2.3339816825096866, 0.3689458938591218, 0.2716270101643473, -0.5720637269250352, 0.1586055485850798, 0.5053188019156685, 0.2530309875243088, -1.7978323491626709, -0.4587989179838758, -0.7410958669695066, 0.07185767434705065, -0.9148336867112769, -2.3921918050320805, 0.9369457447307863, 2.1173272116316557, 0.3570525252899434, -0.6442277430721906, -1.0308245643261846, 0.12804992774775445, 0.6260277128302429, -0.7854732422966628, -2.6467009537314956, 0.7509176133570644, 0.18041387352405777, -0.12979768230383149, -0.40312289710551014, -0.5223859046022974, -0.1288864878580538, -0.2686991462833701, 218.70684687683323},
{0.12234910585084174, -0.1826285384635053, 0.24369426772959707, -5.15340290363434, 0.40489883915072694, -0.028703676451503016, 0.8151104467662122, -0.5365143375602996, -0.7996069938900912, -0.8593352423872939, -0.8767738200746615, -0.3177861615388439, 0.7262572105121955, -0.46692403241136776, 0.5722142086084603, -0.44208501235686815, -0.34490609088522717, -0.2586542756402848, -0.30097968348992965, -1.0062887042555118, 0.30374458432895624, -3.0849654129722333, -3.833274324553494, -0.43344928870986044, -0.7923573261568267, 0.09667554687018837, 0.7461504092322936, 0.2774868658205152, -0.3473362091285246, -0.10762656117219438, 0.6360980382242013, -0.9004873115782085, -0.2201182433567528, -0.041797583512390615, -2.437303215188593, -0.24609494936825096, -1.1807701939671411, -1.9694479881815927, -0.011298661321078455, -0.06867497820929869, -7.6859903314642395, -0.22721788977034132, -0.8815705725063646, -0.8940866743476337, 182.62845663624904},
{0.09748466662984187, 0.7373758989794276, 0.04255256761960484, -0.9276808305567348, 0.7157858361200677, -0.5435109062059486, -0.7125424564692958, -1.018523007506718, -0.6289870810428613, 0.23936843595348697, -0.8538672615470946, 0.7028034088743107, 0.4546651868239135, -2.7130032639378685, 0.20967225047760019, -1.7202764578646348, -0.5882289749198395, 0.15799995591953922, -0.0020554461113207433, -0.17896137170399204, -0.28591547753080615, -3.5376893558343956, -3.5432195872346606, -0.24505681691984949, 0.3307873106265046, -0.5517742662970458, 0.4379632115435201, -2.1313050141427494, -0.7639974511633244, -2.5751417670939554, -0.40245706674614673, 0.26985452157056583, -0.40430046554050214, 0.7856009971029005, -2.741430829842143, -0.396321305394704, -2.116957675267385, -3.5252369300725444, -0.5565564320890456, 0.5218582657920298, -1.3562639716520648, -0.21565209992057527, 0.2075624645510295, 0.8374020177022536, 312.46528499089874},
{-0.41644577730385324, 0.11174329748796293, -1.2732307924982518, -0.8619216151584073, 0.4074914426326634, 0.7349445454096575, 0.4049705564553584, 0.08752579224356982, -0.5447686355373109, -1.2749364732810922, -0.8878124230231904, 0.30433234455360714, 0.029945709115655285, 2.6709983132101933, 0.550744020826092, -0.0206403542261612, -0.9184197009278513, -0.18750976808371372, -0.27870049494173016, -0.15175422598154506, -0.26603884933532634, 1.2902778382482116, 0.3152902433530745, 0.24662297191991175, -0.8366288442104954, 0.4547786561055059, 0.4810467227344441, -1.5927482206301076, -0.48781236200100786, 3.2424876181755486, 0.8244004744455903, 0.4122208992891468, 0.17818485340591575, 0.2243788387296077, 3.530431848511464, -0.5983417305768521, -2.3829987817907217, 2.2331271976679568, -0.2919129876864048, 0.3346435151005596, -1.3409484112784988, 0.12129366955661425, -0.7570384449892396, -0.977170636981576, 384.1298295995228},
{-0.9013299023578393, -0.1887112471679378, -0.4839561266269813, 1.47667660733524, -1.0022578000338083, -0.3361093932181693, -0.0435759467610636, -0.30115921547722163, 0.45005425808904115, -0.09223338371280101, -0.5040901509065465, 0.9073003567636119, -0.5239267364988519, 7.385154380542732, -1.367032383492196, 0.06902924448986689, 0.0358732694401952, -1.1405805818591426, -0.656769822906342, -0.45116135243005373, 0.3584458237506777, 0.7675197973028886, -0.20869037504288485, -1.2512206215916337, -0.3069614073749157, 0.2666921656755326, -0.10220331565902883, 0.16955305375871876, -1.0580537983537777, 6.248201831631478, 0.6357097084245018, -0.045897549029830814, 0.21104175174927076, -1.0126576472560476, 0.880257807508015, -0.2576839034917987, 1.1550807449422855, 4.55072606812445, 0.20466015419796918, -0.2892289395552158, 7.824039318855413, -0.2043098944379972, 0.5514132579666874, 0.5009447373179923, 402.801416252983},
{-0.20450201316228442, -0.3585140655672954, -0.5486938906954707, 0.8376494977249235, -0.9931620279525283, -0.3012215669674071, -0.40491056240173334, -0.7898141482973481, -0.7724084933994663, 0.2142455228513628, -0.6636377193631631, 0.4147165989265691, 0.3714483370331624, 2.348384299311217, 0.5228836907776059, -0.19631012665755554, 0.681745304703167, -0.053021170508959735, 0.30524973232234553, -0.5513141584162312, 0.3823606587276124, 0.19502351236803778, 0.009235135037370026, 0.5142188690798183, -1.12604540787131, 0.4724756168938126, 0.72370260901119, 1.3126302467426891, -0.1308030745859615, 3.2023598512598177, -0.8821652512195661, -0.8368086032673512, 0.3059952488151923, -0.40033007990458586, -0.11752676052978214, -0.7334601252884689, 1.1028507923377098, 2.813874869782828, -0.8921529026116835, 0.07267597987546892, 2.9298303642300487, 0.6064612168080714, -0.2986967842459652, -1.2093381049006888, 268.9353871112806},
{-0.6367416429154383, 0.036472724027696565, 0.6355281989371402, -2.5844641266572532, 0.13853454728211487, 0.08055122101663575, 0.1297174562732219, -1.0344827232280294, -0.8306164330423869, -0.41002464754397294, 0.5466397989608683, -0.16965289347902554, -0.7668066563261086, -0.08910895753306164, 0.269473906735658, -0.8787039133960287, -0.5630298099083595, -0.5214490565825658, -0.9227988943432236, -0.28865814805123235, 0.6818764465393083, -1.0617286651934634, -1.4780323467659413, 0.7762957645226246, 0.3301797269486576, -0.4993511197008978, -0.7182789981942262, 0.3609495426871005, 0.45717383746790197, 0.7671205947674461, 0.05796607050403811, -0.04835001669816063, 0.06366378220942218, -0.5944026575864588, -3.169009202395846, 0.5119262429106429, -1.9057004805872062, 0.1336805354978407, -0.2984259090226058, -0.4595224300890124, -2.904466499255109, 0.6208764439837102, 0.6506506398309283, 0.38844500852860603, 178.68796067276094},
{0.5537887674812259, -0.9510485760374164, -0.1262189278048959, -2.1641442069485137, -0.7348446159809993, -0.8053468077273912, 0.25761988771535677, 0.27944684755938265, 0.5555773999514027, -1.012043007545905, -0.2690617190584902, 0.24856346488533151, 0.24144512061695028, -7.298451611029502, 0.06102214605882933, -3.4880637687136398, -1.029445773588909, 0.3463220611722886, 0.618436675727223, 0.47008098467444187, -0.18420076264634183, -0.22238987013488917, -2.3182443910565613, -0.9792685785568038, -0.4181406627331809, -0.7950020349461976, -0.7372159680625489, -4.33901149731682, -0.8591727893682103, -6.020526632472183, 0.46740357719898307, -0.39031990471981654, -0.012908474330484015, -0.04286729579971963, -3.8961767804870506, 0.09600509297441163, -1.9950157980231262, -4.044397278340631, 0.7153316385354407, 0.25976641858509436, -0.3756609528205666, -0.45362369893545024, -0.01504507896428954, 0.5513600955011295, 185.51387058167992},
{0.07517788021491062, 0.5105491850602951, 0.5773735160588634, -0.9056996516177735, -0.24342997273528874, 0.8539277595315408, -0.36694762128851743, -0.27014646837401196, 0.8390751824000745, 0.3174390317002208, 0.17366964199636734, 0.3212971270938899, -0.2892064707525015, -1.276666793967625, 0.14079489748536136, -0.021479858151362184, -1.1444804508393343, -0.47102066811068855, 0.1604016258289257, 0.2298599606731205, -0.22612566769673384, -1.296042540704826, -2.617267482717722, 0.5382742313300196, 0.5736049106645333, 0.20583681434871237, -0.329827895327661, -1.3133071968480645, 0.472688303835121, -1.9584122030181583, -0.8357489212869521, -1.0056992089933687, -0.8734973334284226, -1.1158618440582513, -2.651246739808299, -1.055668504998953, -0.642624923721711, -0.9905345447022371, 0.6917342326705269, -0.98280179558646, -4.874272003113868, 0.6048715088648298, 0.540852112706518, 0.0901697145847206, 307.1558359082639},
{-0.36245890183611557, 0.5795106661359428, 0.039816730958389404, 0.8635822460550017, -0.14841868164718588, -0.6605028756958227, -0.22148077220873397, -0.05526892188993834, -0.4210691238475015, -0.975974819424491, 0.1546540685936636, -0.13231508807105283, 0.05578407617632733, -3.8554613089120373, -1.0989460802098767, -1.64576480410971, 0.08642727071917071, -1.1088970974800036, -0.4207610691555272, 0.5680526876960528, -0.08955235834810943, -0.35683057256089307, 1.043743742921927, -1.3444725991983826, -0.5584812238419823, -0.15004009085172176, -1.1068247517312073, -1.3909157977817586, -1.0314566047627025, -5.580557061339302, -1.1558818641958062, 0.1525521083577647, -0.25100366861944357, -0.2412288398089468, -2.127244719640608, -0.09562398878438622, -0.9984543692254462, -3.214641789529688, -0.8250560215470488, -0.8876124282810941, -1.8323798708237367, -0.780580263759439, -0.04610471075429671, -1.061012878536822, 621.9842974424411},
{-0.14674703237447917, -1.1043480863706003, 0.37332353890803427, -4.026436917348844, -0.632791503535632, -1.0951920239170676, -1.0827202492448338, -0.8618094275715404, -0.9142191679455144, -0.5889495469234327, -0.8188137399058939, -1.0443238565455848, -0.10756043310487812, -13.818050007319858, -2.4428980405702756, -5.351067462736455, 0.24230676849914107, -0.6741891315477245, -0.4595289237119969, -0.038507447715522114, -0.9530997279380872, 0.26291398724352405, -0.6809051677323789, 0.26346782707397365, 0.2826272506077268, -1.0816153271469786, -0.7840354738600493, -6.7137138178123426, -0.4134404774673169, -14.504551584469123, 1.1144078905377397, 0.30936243945409586, -0.8339362883238323, 0.34786626960685546, -4.801301097386064, -0.2811840858033528, -5.041499983966342, -11.51461690583933, -0.6001153849544285, 0.06588684441973493, -3.4647333648154635, 0.4030382829185974, 0.06437891471610249, -1.051077534765681, 484.73569094644057},
{0.3209407598330998, 0.09367387682150434, -1.1733053664098105, 2.4833296983243267, -0.9852181288232493, 0.21721366522020677, -0.4738354348576351, -0.06383732949696087, -0.27394964828498236, 0.3418126586941912, 0.06290668909093307, 0.21578631843493262, -0.22655790043190271, 5.892015265646865, -0.1632373556721613, 2.1101016238434473, -0.36229630958933645, -0.7653782031473344, -0.9440983242287706, -0.049361971939900856, -1.0910786086857536, 1.521162298484169, 1.2834333314475836, -0.49134864994826566, 0.20628529908487944, -0.18806841320727502, -0.13633440672225833, 1.1428831082201165, -1.1653370364871594, 6.133345573143826, 0.1516883877826324, 0.009022546470928648, -0.8409224557051388, -0.575467652717334, 4.228287711677005, -0.07177345080467029, 2.3447751911352857, 3.4644244825725323, -1.251531784614588, -1.6561400095814205, 5.807644598126534, 0.16604303809704588, -0.7420717136399146, 0.017737072342490667, 551.3304315828766},
{-0.45442365860477996, 0.06288599017505082, -0.7351867045106294, -4.458698209047045, -0.19762325952497317, -0.6795315359269252, -0.8274955956885783, 0.6313936425228914, 0.3830224164721054, -1.207097353780797, 0.029729908917563892, -0.38038547408982515, -0.02281028377520212, -9.377544532301616, -2.631482490403616, -4.490132365793049, -0.08811446057121776, -0.9039080232781816, 0.7362277557328527, -0.21542993309256933, 0.7096097711619769, 0.054280151403245144, -1.5593023536167654, -1.1423344733077423, -0.3474567797447356, 0.7032148841774617, -0.5913323688000691, -3.492937135102527, -1.1055519331316432, -9.954850449593117, -0.17175298858387622, -1.1313434782090919, 0.07898109775487377, 0.8287938569509924, -4.499077896949256, -0.2732429049434507, -2.6463300732507897, -7.059663453927453, 0.5731852215589379, 0.4206110366305092, -3.0259571842627775, -0.5420055448330632, -0.2180446079032243, -0.5803226579905231, 459.072973793419},
{-0.9330742178802832, -0.35548283865431485, 0.5456887458945313, -3.037212206449802, 0.8903253939133973, 0.4406395132752227, -0.7621526970167506, 0.4550530457242454, 0.33112191580651634, 0.4753862588493268, -0.4535263597138089, -0.6544998934201942, -0.8909356980104705, -4.428849335601611, -0.8366183103628358, -1.0860489477939554, -0.5026006055906015, 0.3762579184218652, 0.4695998405864828, -0.29736940472494, -0.600509731321629, -0.545487701053038, 1.0572427111155043, -0.23872794776221473, -0.3588951717962148, -0.6927687326721513, -0.7708845815302954, -0.6612725567266711, -4.1525941640347384E-4, -2.6605137623301456, 0.5242615286753456, -2.279232830730575E-4, 0.08354582787853587, -0.6982966978266503, -1.6886664610311675, 0.35129227685380154, -1.1129101191017112, -2.3455795217006528, 0.0713573258729014, -0.12441579031319626, -3.7473052212282205, -0.9847419008092752, -1.0325944330382157, 0.5070241687190156, 440.3046578211542},
{-0.7370235922238657, -0.6599309381705866, 0.48647880809429545, -5.016671127230663, -0.3945041670371137, -0.7258062581155463, -1.194209150442951, 0.11540731878106913, -0.9370492003754829, -0.11428294016351837, 0.24768798230823744, -0.2749157844820298, 0.17602614406361308, -13.68007428289621, -0.5703787812894132, -3.983369744233247, -0.4316393685602886, -0.8355239092502134, -1.1280544772723364, 0.5589269899849458, -0.4594065005774827, -0.9176094108140755, -1.298786766805451, 0.39353398274466933, -0.1199690327075997, 0.015506271238262627, -0.5148792845676189, -3.712153516766449, 0.15882381769690898, -12.375049913728027, 0.11801472110483413, 0.43422852832455683, 0.18631814268385793, 0.25681185728610423, -5.54690045358046, -1.2359837862143896, -4.957117951655056, -7.857253906477763, -1.194450906592539, 0.2706198830286965, -5.555341996284593, 0.5673400016785198, -0.3560487184053877, -0.44325370241960793, 329.17168149505596},
{-0.9834144671102956, -0.8092470258861788, -0.2939786504519555, -5.512843846667349, -0.737909972240492, -0.8300791950658717, -1.0077057772613054, 0.5515468671284439, 0.4231555502142523, 0.6719122055846387, -0.9762270765027001, 0.9678347070005618, -0.9223480634278703, -3.547922492436727, -1.2508855035447048, -0.7840869116650385, -0.34040552091571313, -0.7240312935659452, -1.0592586046977719, -0.023308206359122615, -0.27181057721655744, -1.6515932436568967, -0.9741066046240192, -0.03619058014070403, -0.3887467295265994, -0.01390588624678758, -0.0730776859741489, -2.1345719415151057, 0.23365206187819734, -3.132544031527501, -0.24122984443697826, 0.5472774823696304, -0.9402901796175462, 0.5807301059264367, -4.711809201215892, -0.09438334222129177, -1.9492978429150403, -2.9351529023526295, -0.7455081531325182, -0.4783823242133347, -7.526115249603915, 0.04152423859536201, 0.6977142525347236, -0.7226475201680383, 236.37766190171027},
{-1.1488867260396114, -1.2636750905132232, -0.7163575881841117, -8.860243584705762, -0.9108881928899422, -0.6498722156437249, -0.7806332150070358, -0.3893296908909497, -0.5401262038048246, -1.19509787406807, -0.8403297957640204, -0.9699865627737002, -0.9402273014900425, -3.1779986940035814, -2.0001602305044397, -1.6878967577473902, -0.8193748222592057, -0.6550401917031605, -0.5107685610392213, -1.211569112896478, -0.8367235134435871, -3.382721036461002, -7.248765844863174, -0.32948680778048167, -0.8031478402157098, -0.8976657521864666, -0.9590449716769812, -1.1456120169399189, -0.6760187101585089, -2.3621208436351755, -1.247590206746046, -1.2617997369806826, -1.749519486025398, -1.49724921219067, -3.714183316547508, -0.7841582716614769, -3.7440681025159437, -3.122642261143327, -1.59217113310956, -1.8680377495226408, -11.682787274214993, -0.8894304384250548, -1.1848509419564484, -0.9881087530927201, 1106.9202418265845}};